{"learner":{"attributes":{"best_iteration":"76","best_score":"0.8914","scikit_learn":"{\"_estimator_type\": \"classifier\"}"},"feature_names":["2","3","5","6","7","8","9","10","11","12","13","14","15","16","17","18","19","20","21","23","25","26","27","28","29","30","31","32","33","35","36","37","38","40","41","42","43","45","46","47","48","49","50","51","52","53","54","55","56","57","58","59","60","61","63","64","65","66","67","68","69","70","71","72","73","74","75","76","77","78","79","80","81","82","83","84","85","86"],"feature_types":["float","float","int","int","int","int","int","int","int","int","int","int","int","int","int","int","int","int","int","int","int","int","int","int","int","int","int","int","int","int","int","int","int","int","int","int","int","int","int","int","int","int","int","int","int","int","int","int","int","int","int","int","int","int","int","int","int","int","int","int","int","int","int","int","int","int","int","int","int","int","int","int","int","int","int","float","int","float"],"gradient_booster":{"model":{"gbtree_model_param":{"num_parallel_tree":"1","num_trees":"277"},"iteration_indptr":[0,1,2,3,4,5,6,7,8,9,10,11,12,13,14,15,16,17,18,19,20,21,22,23,24,25,26,27,28,29,30,31,32,33,34,35,36,37,38,39,40,41,42,43,44,45,46,47,48,49,50,51,52,53,54,55,56,57,58,59,60,61,62,63,64,65,66,67,68,69,70,71,72,73,74,75,76,77,78,79,80,81,82,83,84,85,86,87,88,89,90,91,92,93,94,95,96,97,98,99,100,101,102,103,104,105,106,107,108,109,110,111,112,113,114,115,116,117,118,119,120,121,122,123,124,125,126,127,128,129,130,131,132,133,134,135,136,137,138,139,140,141,142,143,144,145,146,147,148,149,150,151,152,153,154,155,156,157,158,159,160,161,162,163,164,165,166,167,168,169,170,171,172,173,174,175,176,177,178,179,180,181,182,183,184,185,186,187,188,189,190,191,192,193,194,195,196,197,198,199,200,201,202,203,204,205,206,207,208,209,210,211,212,213,214,215,216,217,218,219,220,221,222,223,224,225,226,227,228,229,230,231,232,233,234,235,236,237,238,239,240,241,242,243,244,245,246,247,248,249,250,251,252,253,254,255,256,257,258,259,260,261,262,263,264,265,266,267,268,269,270,271,272,273,274,275,276,277],"tree_info":[0,0,0,0,0,0,0,0,0,0,0,0,0,0,0,0,0,0,0,0,0,0,0,0,0,0,0,0,0,0,0,0,0,0,0,0,0,0,0,0,0,0,0,0,0,0,0,0,0,0,0,0,0,0,0,0,0,0,0,0,0,0,0,0,0,0,0,0,0,0,0,0,0,0,0,0,0,0,0,0,0,0,0,0,0,0,0,0,0,0,0,0,0,0,0,0,0,0,0,0,0,0,0,0,0,0,0,0,0,0,0,0,0,0,0,0,0,0,0,0,0,0,0,0,0,0,0,0,0,0,0,0,0,0,0,0,0,0,0,0,0,0,0,0,0,0,0,0,0,0,0,0,0,0,0,0,0,0,0,0,0,0,0,0,0,0,0,0,0,0,0,0,0,0,0,0,0,0,0,0,0,0,0,0,0,0,0,0,0,0,0,0,0,0,0,0,0,0,0,0,0,0,0,0,0,0,0,0,0,0,0,0,0,0,0,0,0,0,0,0,0,0,0,0,0,0,0,0,0,0,0,0,0,0,0,0,0,0,0,0,0,0,0,0,0,0,0,0,0,0,0,0,0,0,0,0,0,0,0,0,0,0,0,0,0,0,0,0,0,0,0,0,0,0,0,0,0],"trees":[{"base_weights":[-1.3975082E-2,-9.905235E-1,1.3084176E0,-1.0496558E0,1.6940105E0,1.3783648E0,2.876514E-1,-2.0028318E-3,2.8699578E-3,4.0165517E-3,2.5354337E-3,2.6849883E-3,9.903376E-4,1.958223E-3,2.786215E-4],"categories":[],"categories_nodes":[],"categories_segments":[],"categories_sizes":[],"default_left":[0,0,0,0,0,0,0,0,0,0,0,0,0,0,0],"id":0,"left_children":[1,3,5,7,9,11,13,-1,-1,-1,-1,-1,-1,-1,-1],"loss_changes":[5.707606E2,4.053534E1,1.3365234E1,2.0782562E1,5.5436134E-1,1.0522949E1,1.2690023E0,0E0,0E0,0E0,0E0,0E0,0E0,0E0,0E0],"parents":[2147483647,0,0,1,1,2,2,3,3,4,4,5,5,6,6],"right_children":[2,4,6,8,10,12,14,-1,-1,-1,-1,-1,-1,-1,-1],"split_conditions":[1E0,1E0,1E0,1E0,1E0,1E0,1E0,-2.0028318E-3,2.8699578E-3,4.0165517E-3,2.5354337E-3,2.6849883E-3,9.903376E-4,1.958223E-3,2.786215E-4],"split_indices":[67,5,63,14,43,47,17,0,0,0,0,0,0,0,0],"split_type":[0,0,0,0,0,0,0,0,0,0,0,0,0,0,0],"sum_hessian":[4.4177676E2,2.5413245E2,1.876443E2,2.4871489E2,5.417552E0,1.7557794E2,1.2066366E1,2.4575987E2,2.9550285E0,1.970019E0,3.4475331E0,1.6178781E2,1.37901325E1,1.7237666E0,1.03426E1],"tree_param":{"num_deleted":"0","num_feature":"78","num_nodes":"15","size_leaf_vector":"1"}},{"base_weights":[-4.431756E-2,-1.0678284E0,1.3298079E0,-1.111658E0,2.488769E-3,1.4869304E0,9.396279E-1,-2.4667599E-3,-1.91155E-3,3.0134956E-3,1.3114638E-3,4.076588E-3,1.5968829E-3],"categories":[],"categories_nodes":[],"categories_segments":[],"categories_sizes":[],"default_left":[0,0,0,0,0,0,0,0,0,0,0,0,0],"id":1,"left_children":[1,3,5,7,-1,9,11,-1,-1,-1,-1,-1,-1],"loss_changes":[6.171034E2,2.6730865E1,1.1343292E1,4.186493E0,0E0,1.4461365E1,5.0819893E0,0E0,0E0,0E0,0E0,0E0,0E0],"parents":[2147483647,0,0,1,1,2,2,3,3,5,5,6,6],"right_children":[2,4,6,8,-1,10,12,-1,-1,-1,-1,-1,-1],"split_conditions":[1E0,1E0,1E0,1E0,2.488769E-3,1E0,1E0,-2.4667599E-3,-1.91155E-3,3.0134956E-3,1.3114638E-3,4.076588E-3,1.5968829E-3],"split_indices":[2,31,34,27,0,23,67,0,0,0,0,0,0],"split_type":[0,0,0,0,0,0,0,0,0,0,0,0,0],"sum_hessian":[4.3857123E2,2.5136528E2,1.8720596E2,2.4693164E2,4.4336386E0,1.3326147E2,5.3944492E1,6.499477E1,1.8193687E2,1.1281853E2,2.0442944E1,2.9559278E0,5.0988564E1],"tree_param":{"num_deleted":"0","num_feature":"78","num_nodes":"13","size_leaf_vector":"1"}},{"base_weights":[6.0194954E-3,-6.9868743E-1,4.0502247E-1,-2.8538068E-3,-5.922249E-1,1.9084095E0,3.0621806E-1,-7.562309E-4,-1.989715E-3,3.8889556E-3,2.3832503E-3,4.375387E-4,1.9188476E-3],"categories":[],"categories_nodes":[],"categories_segments":[],"categories_sizes":[],"default_left":[0,0,0,0,0,0,0,0,0,0,0,0,0],"id":2,"left_children":[1,3,5,-1,7,9,11,-1,-1,-1,-1,-1,-1],"loss_changes":[1.22264366E2,1.4006035E1,4.1181156E1,0E0,1.2343792E1,1.7663536E0,1.3282858E1,0E0,0E0,0E0,0E0,0E0,0E0],"parents":[2147483647,0,0,1,1,2,2,4,4,5,5,6,6],"right_children":[2,4,6,-1,8,10,12,-1,-1,-1,-1,-1,-1],"split_conditions":[1E0,1E0,1E0,-2.8538068E-3,1E0,1E0,1E0,-7.562309E-4,-1.989715E-3,3.8889556E-3,2.3832503E-3,4.375387E-4,1.9188476E-3],"split_indices":[22,55,43,0,10,24,70,0,0,0,0,0,0],"split_type":[0,0,0,0,0,0,0,0,0,0,0,0,0],"sum_hessian":[4.3462506E2,1.5709447E2,2.7753058E2,1.7475426E1,1.3961903E2,1.700189E1,2.605287E2,1.0121333E2,3.840571E1,1.2813042E1,4.188848E0,2.3786777E2,2.2660921E1],"tree_param":{"num_deleted":"0","num_feature":"78","num_nodes":"13","size_leaf_vector":"1"}},{"base_weights":[-2.83352E-3,-1.0801861E0,1.3428808E0,-1.1064937E0,2.6086238E-3,1.2029928E0,1.6973482E0,-2.0987045E-3,2.5970172E-3,2.5526963E-3,1.0388029E-3,4.010846E-3,2.030866E-3],"categories":[],"categories_nodes":[],"categories_segments":[],"categories_sizes":[],"default_left":[0,0,0,0,0,0,0,0,0,0,0,0,0],"id":3,"left_children":[1,3,5,7,-1,9,11,-1,-1,-1,-1,-1,-1],"loss_changes":[6.2863446E2,1.5923004E1,9.355347E0,1.6188904E1,0E0,1.5534073E1,1.5046585E1,0E0,0E0,0E0,0E0,0E0,0E0],"parents":[2147483647,0,0,1,1,2,2,3,3,5,5,6,6],"right_children":[2,4,6,8,-1,10,12,-1,-1,-1,-1,-1,-1],"split_conditions":[1E0,1E0,1.7786616E0,1E0,2.6086238E-3,1E0,2.0860002E0,-2.0987045E-3,2.5970172E-3,2.5526963E-3,1.0388029E-3,4.010846E-3,2.030866E-3],"split_indices":[2,20,77,31,0,77,77,0,0,0,0,0,0],"split_type":[0,0,0,0,0,0,0,0,0,0,0,0,0],"sum_hessian":[4.3339807E2,2.4071005E2,1.9268803E2,2.3824727E2,2.4627793E0,1.3847804E2,5.4209995E1,2.3578282E2,2.4644372E0,1.08665985E2,2.9812054E1,3.030931E1,2.3900684E1],"tree_param":{"num_deleted":"0","num_feature":"78","num_nodes":"13","size_leaf_vector":"1"}},{"base_weights":[-1.2040887E-3,-1.1034138E0,1.3824575E0,-1.1398596E0,1.6004043E0,2.0590071E-1,2.0143976E0,-2.1885077E-3,7.3432934E-4,4.0103486E-3,1.1139486E-3,3.2449243E-4,2.7633482E-3,3.9112554E-3,3.5682267E-3],"categories":[],"categories_nodes":[],"categories_segments":[],"categories_sizes":[],"default_left":[0,0,0,0,0,0,0,0,0,0,0,0,0,0,0],"id":4,"left_children":[1,3,5,7,9,11,13,-1,-1,-1,-1,-1,-1,-1,-1],"loss_changes":[6.7178815E2,2.4343353E1,1.4517392E2,1.5637146E1,1.7341738E0,2.671076E0,6.7962646E-1,0E0,0E0,0E0,0E0,0E0,0E0,0E0,0E0],"parents":[2147483647,0,0,1,1,2,2,3,3,4,4,5,5,6,6],"right_children":[2,4,6,8,10,12,14,-1,-1,-1,-1,-1,-1,-1,-1],"split_conditions":[1E0,1E0,1E0,1E0,1E0,1E0,1E0,-2.1885077E-3,7.3432934E-4,4.0103486E-3,1.1139486E-3,3.2449243E-4,2.7633482E-3,3.9112554E-3,3.5682267E-3],"split_indices":[2,20,22,46,6,20,45,0,0,0,0,0,0,0,0],"split_type":[0,0,0,0,0,0,0,0,0,0,0,0,0,0,0],"sum_hessian":[4.4029214E2,2.4508243E2,1.9520972E2,2.4187988E2,3.2025464E0,6.825814E1,1.26951584E2,2.3547588E2,6.4040055E0,1.9706855E0,1.2318609E0,6.677926E1,1.4788758E0,5.8913303E1,6.803828E1],"tree_param":{"num_deleted":"0","num_feature":"78","num_nodes":"15","size_leaf_vector":"1"}},{"base_weights":[1.958616E-2,-1.0516553E0,1.3296157E0,-1.1364818E0,-9.143655E-1,1.4029053E0,2.013588E-4,-2.7693366E-3,-2.047321E-3,-1.8220659E-3,-5.829794E-4,2.722084E-3,1.2620599E-3],"categories":[],"categories_nodes":[],"categories_segments":[],"categories_sizes":[],"default_left":[0,0,0,0,0,0,0,0,0,0,0,0,0],"id":5,"left_children":[1,3,5,7,9,11,-1,-1,-1,-1,-1,-1,-1],"loss_changes":[6.102213E2,2.6819763E0,1.7487762E1,1.4716644E0,3.7998962E0,8.821228E0,0E0,0E0,0E0,0E0,0E0,0E0,0E0],"parents":[2147483647,0,0,1,1,2,2,3,3,4,4,5,5],"right_children":[2,4,6,8,10,12,-1,-1,-1,-1,-1,-1,-1],"split_conditions":[1E0,1E0,1E0,1E0,1E0,1E0,2.013588E-4,-2.7693366E-3,-2.047321E-3,-1.8220659E-3,-5.829794E-4,2.722084E-3,1.2620599E-3],"split_indices":[2,11,63,43,57,47,0,0,0,0,0,0,0],"split_type":[0,0,0,0,0,0,0,0,0,0,0,0,0],"sum_hessian":[4.3462982E2,2.3911757E2,1.9551224E2,1.4734836E2,9.176921E1,1.8442621E2,1.1086034E1,1.1313024E1,1.3603534E2,8.217285E1,9.596362E0,1.686539E2,1.5772304E1],"tree_param":{"num_deleted":"0","num_feature":"78","num_nodes":"13","size_leaf_vector":"1"}},{"base_weights":[3.4915447E-2,-1.0346415E0,1.3956238E0,-1.0713191E0,1.8717874E0,6.704358E-1,1.5246004E0,-2.360748E-3,-1.7612394E-3,2.5013497E-3,3.9807744E-3,1.7952393E-3,-6.952139E-4,3.6590474E-3,2.7577889E-3],"categories":[],"categories_nodes":[],"categories_segments":[],"categories_sizes":[],"default_left":[0,0,0,0,0,0,0,0,0,0,0,0,0,0,0],"id":6,"left_children":[1,3,5,7,9,11,13,-1,-1,-1,-1,-1,-1,-1,-1],"loss_changes":[6.299412E2,2.60354E1,1.7715027E1,5.736511E0,1.5214252E-1,9.086764E0,2.2877808E0,0E0,0E0,0E0,0E0,0E0,0E0,0E0,0E0],"parents":[2147483647,0,0,1,1,2,2,3,3,4,4,5,5,6,6],"right_children":[2,4,6,8,10,12,14,-1,-1,-1,-1,-1,-1,-1,-1],"split_conditions":[1E0,1E0,1E0,1E0,1E0,1E0,1E0,-2.360748E-3,-1.7612394E-3,2.5013497E-3,3.9807744E-3,1.7952393E-3,-6.952139E-4,3.6590474E-3,2.7577889E-3],"split_indices":[2,20,56,56,57,47,51,0,0,0,0,0,0,0,0],"split_type":[0,0,0,0,0,0,0,0,0,0,0,0,0,0,0],"sum_hessian":[4.3264444E2,2.4225154E2,1.903929E2,2.392949E2,2.956634E0,2.8842417E1,1.6155049E2,8.852846E1,1.5076645E2,1.2320852E0,1.7245487E0,2.243569E1,6.4067254E0,1.1350262E1,1.5020023E2],"tree_param":{"num_deleted":"0","num_feature":"78","num_nodes":"15","size_leaf_vector":"1"}},{"base_weights":[2.384031E-2,3.2024258E-1,-1.2024989E0,-6.020039E-1,6.177157E-1,-1.2427286E0,2.4963769E-3,-1.4720284E-3,5.095499E-4,1.4577915E-3,1.00314646E-4,-2.7046248E-3,-2.2406268E-3],"categories":[],"categories_nodes":[],"categories_segments":[],"categories_sizes":[],"default_left":[0,0,0,0,0,0,0,0,0,0,0,0,0],"id":7,"left_children":[1,3,5,7,9,11,-1,-1,-1,-1,-1,-1,-1],"loss_changes":[1.5447119E2,9.392871E1,8.655243E0,1.4152943E1,2.4717476E1,4.0516663E-1,0E0,0E0,0E0,0E0,0E0,0E0,0E0],"parents":[2147483647,0,0,1,1,2,2,3,3,4,4,5,5],"right_children":[2,4,6,8,10,12,-1,-1,-1,-1,-1,-1,-1],"split_conditions":[1E0,1E0,1E0,1E0,1E0,1E0,2.4963769E-3,-1.4720284E-3,5.095499E-4,1.4577915E-3,1.00314646E-4,-2.7046248E-3,-2.2406268E-3],"split_indices":[69,56,20,57,10,35,0,0,0,0,0,0,0],"split_type":[0,0,0,0,0,0,0,0,0,0,0,0,0],"sum_hessian":[4.247611E2,3.421407E2,8.262042E1,8.3418526E1,2.5872217E2,8.138798E1,1.2324523E0,6.838889E1,1.5029636E1,1.9887035E2,5.9851814E1,1.0081254E1,7.130672E1],"tree_param":{"num_deleted":"0","num_feature":"78","num_nodes":"13","size_leaf_vector":"1"}},{"base_weights":[-3.8379658E-2,-9.0106493E-1,2.6620725E-1,8.982437E-1,-9.6441644E-1,1.8552227E-1,1.8437786E0,4.2765707E-4,2.4331415E-3,-1.9460149E-3,2.0981372E-4,-1.4333506E-5,1.5112075E-3,2.6936445E-3,3.762008E-3],"categories":[],"categories_nodes":[],"categories_segments":[],"categories_sizes":[],"default_left":[0,0,0,0,0,0,0,0,0,0,0,0,0,0,0],"id":8,"left_children":[1,3,5,7,9,11,13,-1,-1,-1,-1,-1,-1,-1,-1],"loss_changes":[1.1082041E2,1.2631134E1,3.9642136E1,1.0221972E0,9.918777E0,3.6150185E1,8.117218E-1,0E0,0E0,0E0,0E0,0E0,0E0,0E0,0E0],"parents":[2147483647,0,0,1,1,2,2,3,3,4,4,5,5,6,6],"right_children":[2,4,6,8,10,12,14,-1,-1,-1,-1,-1,-1,-1,-1],"split_conditions":[1E0,2.7E2,1E0,-5.2394915E-1,1E0,1.7786616E0,4.129543E-2,4.2765707E-4,2.4331415E-3,-1.9460149E-3,2.0981372E-4,-1.4333506E-5,1.5112075E-3,2.6936445E-3,3.762008E-3],"split_indices":[56,75,5,77,23,77,77,0,0,0,0,0,0,0,0],"split_type":[0,0,0,0,0,0,0,0,0,0,0,0,0,0,0],"sum_hessian":[4.215597E2,1.0995029E2,3.116094E2,3.6947308E0,1.0625556E2,2.965539E2,1.5055507E1,1.4777839E0,2.216947E0,9.836898E1,7.88658E0,2.270577E2,6.949621E1,5.1831274E0,9.872379E0],"tree_param":{"num_deleted":"0","num_feature":"78","num_nodes":"15","size_leaf_vector":"1"}},{"base_weights":[2.9040378E-2,3.0761543E-1,-1.132001E0,-6.3403964E-1,6.1504585E-1,-1.3024899E0,-1.0270667E0,-1.2805578E-3,3.95256E-3,9.481884E-4,3.3719095E-3,-2.480439E-3,-1.9020821E-3,-1.8292522E-3,-3.1629852E-3],"categories":[],"categories_nodes":[],"categories_segments":[],"categories_sizes":[],"default_left":[0,0,0,0,0,0,0,0,0,0,0,0,0,0,0],"id":9,"left_children":[1,3,5,7,9,11,13,-1,-1,-1,-1,-1,-1,-1,-1],"loss_changes":[1.4437791E2,1.0425644E2,1.41156E0,1.4250458E1,3.362709E1,1.9345474E-1,1.2737541E0,0E0,0E0,0E0,0E0,0E0,0E0,0E0,0E0],"parents":[2147483647,0,0,1,1,2,2,3,3,4,4,5,5,6,6],"right_children":[2,4,6,8,10,12,14,-1,-1,-1,-1,-1,-1,-1,-1],"split_conditions":[1E0,1E0,1E0,1E0,1E0,1E0,2E0,-1.2805578E-3,3.95256E-3,9.481884E-4,3.3719095E-3,-2.480439E-3,-1.9020821E-3,-1.8292522E-3,-3.1629852E-3],"split_indices":[69,56,56,12,12,21,74,0,0,0,0,0,0,0,0],"split_type":[0,0,0,0,0,0,0,0,0,0,0,0,0,0,0],"sum_hessian":[4.461786E2,3.5989944E2,8.627915E1,8.855388E1,2.7134558E2,3.2436954E1,5.38422E1,8.682672E1,1.7271591E0,2.501176E2,2.1227966E1,2.8258898E1,4.178056E0,5.11381E1,2.7040992E0],"tree_param":{"num_deleted":"0","num_feature":"78","num_nodes":"15","size_leaf_vector":"1"}},{"base_weights":[1.0966081E-2,-1.03935E0,1.3161623E0,-1.3443913E0,-8.7638634E-1,4.538682E-1,1.477E0,-2.3257334E-3,-2.6787699E-3,-1.835632E-3,-2.072948E-4,4.0938242E-4,2.775121E-3,3.6334351E-3,2.642419E-3],"categories":[],"categories_nodes":[],"categories_segments":[],"categories_sizes":[],"default_left":[0,0,0,0,0,0,0,0,0,0,0,0,0,0,0],"id":10,"left_children":[1,3,5,7,9,11,13,-1,-1,-1,-1,-1,-1,-1,-1],"loss_changes":[5.920251E2,1.17777405E1,2.663974E1,5.6985474E-1,1.370845E1,7.364232E0,3.6624146E0,0E0,0E0,0E0,0E0,0E0,0E0,0E0,0E0],"parents":[2147483647,0,0,1,1,2,2,3,3,4,4,5,5,6,6],"right_children":[2,4,6,8,10,12,14,-1,-1,-1,-1,-1,-1,-1,-1],"split_conditions":[1E0,1E0,1E0,1E0,1E0,1E0,1E0,-2.3257334E-3,-2.6787699E-3,-1.835632E-3,-2.072948E-4,4.0938242E-4,2.775121E-3,3.6334351E-3,2.642419E-3],"split_indices":[2,56,56,13,21,11,43,0,0,0,0,0,0,0,0],"split_type":[0,0,0,0,0,0,0,0,0,0,0,0,0,0,0],"sum_hessian":[4.3166147E2,2.3919617E2,1.9246532E2,8.303789E1,1.5615828E2,3.031587E1,1.6214944E2,4.5203876E1,3.783401E1,1.3573502E2,2.042327E1,2.4890417E1,5.425453E0,1.48210745E1,1.4732837E2],"tree_param":{"num_deleted":"0","num_feature":"78","num_nodes":"15","size_leaf_vector":"1"}},{"base_weights":[2.1200683E-2,-1.0311178E0,1.3238634E0,-1.0678159E0,3.4435163E-3,6.4337444E-1,1.4393356E0,-2.0459043E-3,2.9519496E-3,1.5499552E-3,-1.7186925E-4,2.8266404E-3,2.2208898E-3],"categories":[],"categories_nodes":[],"categories_segments":[],"categories_sizes":[],"default_left":[0,0,0,0,0,0,0,0,0,0,0,0,0],"id":11,"left_children":[1,3,5,7,-1,9,11,-1,-1,-1,-1,-1,-1],"loss_changes":[5.977341E2,2.5785034E1,1.5217743E1,2.3622528E1,0E0,4.0622606E0,3.2962036E0,0E0,0E0,0E0,0E0,0E0,0E0],"parents":[2147483647,0,0,1,1,2,2,3,3,5,5,6,6],"right_children":[2,4,6,8,-1,10,12,-1,-1,-1,-1,-1,-1],"split_conditions":[1E0,1E0,1E0,1E0,3.4435163E-3,1E0,1E0,-2.0459043E-3,2.9519496E-3,1.5499552E-3,-1.7186925E-4,2.8266404E-3,2.2208898E-3],"split_indices":[2,5,56,20,0,47,34,0,0,0,0,0,0],"split_type":[0,0,0,0,0,0,0,0,0,0,0,0,0],"sum_hessian":[4.3584296E2,2.4109895E2,1.9474399E2,2.381387E2,2.9602613E0,2.8347353E1,1.6639662E2,2.3493405E2,3.204652E0,2.2433983E1,5.9133706E0,1.2172145E2,4.467518E1],"tree_param":{"num_deleted":"0","num_feature":"78","num_nodes":"13","size_leaf_vector":"1"}},{"base_weights":[-1.8491613E-2,-1.170645E-1,1.6841657E0,-8.1791036E-2,-1.1554009E0,1.7565955E0,1.3638502E0,-2.6805178E-4,8.329196E-4,-2.488189E-3,-1.6694296E-3,4.0749065E-3,2.8900532E-3,1.6170588E-3,3.907096E-3],"categories":[],"categories_nodes":[],"categories_segments":[],"categories_sizes":[],"default_left":[0,0,0,0,0,0,0,0,0,0,0,0,0,0,0],"id":12,"left_children":[1,3,5,7,9,11,13,-1,-1,-1,-1,-1,-1,-1,-1],"loss_changes":[7.227281E1,1.4898425E1,3.071518E-1,1.3184278E1,5.17622E-1,1.2981262E0,1.5701218E0,0E0,0E0,0E0,0E0,0E0,0E0,0E0,0E0],"parents":[2147483647,0,0,1,1,2,2,3,3,4,4,5,5,6,6],"right_children":[2,4,6,8,10,12,14,-1,-1,-1,-1,-1,-1,-1,-1],"split_conditions":[1E0,1E0,1E0,1E0,1E0,1E0,1E0,-2.6805178E-4,8.329196E-4,-2.488189E-3,-1.6694296E-3,4.0749065E-3,2.8900532E-3,1.6170588E-3,3.907096E-3],"split_indices":[12,39,34,18,45,45,42,0,0,0,0,0,0,0,0],"split_type":[0,0,0,0,0,0,0,0,0,0,0,0,0,0,0],"sum_hessian":[4.3039862E2,4.0693295E2,2.3465672E1,3.9366748E2,1.3265455E1,1.8772448E1,4.6932235E0,3.520453E2,4.162219E1,7.37169E0,5.893765E0,5.4364085E0,1.333604E1,2.9620879E0,1.7311354E0],"tree_param":{"num_deleted":"0","num_feature":"78","num_nodes":"15","size_leaf_vector":"1"}},{"base_weights":[2.2280546E-2,3.053606E-1,-1.1966937E0,-5.75843E-1,9.6033716E-1,-1.2092303E0,-1.0590975E-3,-2.4946046E-3,-8.5581583E-4,1.8212374E-3,-3.096644E-3,-2.2104552E-3,-3.1284594E-3],"categories":[],"categories_nodes":[],"categories_segments":[],"categories_sizes":[],"default_left":[0,0,0,0,0,0,0,0,0,0,0,0,0],"id":13,"left_children":[1,3,5,7,9,11,-1,-1,-1,-1,-1,-1,-1],"loss_changes":[1.5173141E2,2.0601155E2,5.799484E-1,1.3285133E1,1.2631195E1,4.055786E-1,0E0,0E0,0E0,0E0,0E0,0E0,0E0],"parents":[2147483647,0,0,1,1,2,2,3,3,4,4,5,5],"right_children":[2,4,6,8,10,12,-1,-1,-1,-1,-1,-1,-1],"split_conditions":[1E0,1E0,1E0,1E0,1E0,1E0,-1.0590975E-3,-2.4946046E-3,-8.5581583E-4,1.8212374E-3,-3.096644E-3,-2.2104552E-3,-3.1284594E-3],"split_indices":[69,22,29,44,68,76,0,0,0,0,0,0,0],"split_type":[0,0,0,0,0,0,0,0,0,0,0,0,0],"sum_hessian":[4.3950958E2,3.5673956E2,8.2770004E1,1.5210715E2,2.0463243E2,8.1050125E1,1.7198752E0,1.9404139E1,1.32703E2,2.0291217E2,1.7202673E0,7.8839714E1,2.2104113E0],"tree_param":{"num_deleted":"0","num_feature":"78","num_nodes":"13","size_leaf_vector":"1"}},{"base_weights":[8.719399E-3,-9.8601365E-1,1.3280308E0,-1.0931014E0,3.4556735E-1,1.123594E0,1.5814766E0,-2.0826964E-3,3.3103495E-3,-1.0797455E-3,8.193975E-4,1.9128277E-3,3.2663133E-3,2.9663704E-3,1.2868935E-3],"categories":[],"categories_nodes":[],"categories_segments":[],"categories_sizes":[],"default_left":[0,0,0,0,0,0,0,0,0,0,0,0,0,0,0],"id":14,"left_children":[1,3,5,7,9,11,13,-1,-1,-1,-1,-1,-1,-1,-1],"loss_changes":[5.7995856E2,3.596527E1,9.665192E0,2.1400787E1,1.720346E0,5.9414215E0,1.4154663E0,0E0,0E0,0E0,0E0,0E0,0E0,0E0,0E0],"parents":[2147483647,0,0,1,1,2,2,3,3,4,4,5,5,6,6],"right_children":[2,4,6,8,10,12,14,-1,-1,-1,-1,-1,-1,-1,-1],"split_conditions":[1E0,1E0,1E0,1E0,1E0,1E0,1E0,-2.0826964E-3,3.3103495E-3,-1.0797455E-3,8.193975E-4,1.9128277E-3,3.2663133E-3,2.9663704E-3,1.2868935E-3],"split_indices":[67,70,11,14,35,70,30,0,0,0,0,0,0,0,0],"split_type":[0,0,0,0,0,0,0,0,0,0,0,0,0,0,0],"sum_hessian":[4.4171964E2,2.5185303E2,1.8986662E2,2.3312285E2,1.8730179E1,1.0539516E2,8.4471466E1,2.3065723E2,2.4656215E0,1.7224882E0,1.700769E1,9.2549644E1,1.2845512E1,8.2495926E1,1.9755358E0],"tree_param":{"num_deleted":"0","num_feature":"78","num_nodes":"15","size_leaf_vector":"1"}},{"base_weights":[-1.6351668E-2,-7.762584E-1,2.612682E-1,-8.3460635E-1,7.726236E-4,2.3010556E-1,1.8837432E0,-1.6016772E-3,1.9117664E-3,8.292807E-5,8.3861366E-4,4.078959E-3,1.5702536E-3],"categories":[],"categories_nodes":[],"categories_segments":[],"categories_sizes":[],"default_left":[0,0,0,0,0,0,0,0,0,0,0,0,0],"id":15,"left_children":[1,3,5,7,-1,9,11,-1,-1,-1,-1,-1,-1],"loss_changes":[9.228928E1,8.186142E0,1.615682E1,6.404045E0,0E0,1.2980061E1,1.8031044E0,0E0,0E0,0E0,0E0,0E0,0E0],"parents":[2147483647,0,0,1,1,2,2,3,3,5,5,6,6],"right_children":[2,4,6,8,-1,10,12,-1,-1,-1,-1,-1,-1],"split_conditions":[1E0,1E0,1E0,1E0,7.726236E-4,1E0,1E0,-1.6016772E-3,1.9117664E-3,8.292807E-5,8.3861366E-4,4.078959E-3,1.5702536E-3],"split_indices":[56,23,20,59,0,13,6,0,0,0,0,0,0],"split_type":[0,0,0,0,0,0,0,0,0,0,0,0,0],"sum_hessian":[4.3726593E2,1.1695492E2,3.20311E2,1.1153228E2,5.422645E0,3.143868E2,5.9241977E0,1.09803925E2,1.7283555E0,1.7167412E2,1.4271269E2,4.443517E0,1.4806806E0],"tree_param":{"num_deleted":"0","num_feature":"78","num_nodes":"13","size_leaf_vector":"1"}},{"base_weights":[3.5966005E-2,-1.0611765E0,1.3500959E0,-1.1041619E0,1.1124654E0,2.1647848E-1,1.9877822E0,-2.1048822E-3,3.2940898E-3,3.985063E-3,4.2403094E-4,-5.6243043E-5,1.387634E-3,3.8927451E-3,3.4847136E-3],"categories":[],"categories_nodes":[],"categories_segments":[],"categories_sizes":[],"default_left":[0,0,0,0,0,0,0,0,0,0,0,0,0,0,0],"id":16,"left_children":[1,3,5,7,9,11,13,-1,-1,-1,-1,-1,-1,-1,-1],"loss_changes":[6.1233685E2,2.1749664E1,1.3965067E2,2.1457031E1,4.1186304E0,9.167641E0,1.1032104E0,0E0,0E0,0E0,0E0,0E0,0E0,0E0,0E0],"parents":[2147483647,0,0,1,1,2,2,3,3,4,4,5,5,6,6],"right_children":[2,4,6,8,10,12,14,-1,-1,-1,-1,-1,-1,-1,-1],"split_conditions":[1E0,1E0,1E0,1E0,2.1633129E-1,1.2579032E0,1E0,-2.1048822E-3,3.2940898E-3,3.985063E-3,4.2403094E-4,-5.6243043E-5,1.387634E-3,3.8927451E-3,3.4847136E-3],"split_indices":[2,12,22,14,77,77,11,0,0,0,0,0,0,0,0],"split_type":[0,0,0,0,0,0,0,0,0,0,0,0,0,0,0],"sum_hessian":[4.245073E2,2.3136458E2,1.9314272E2,2.2692615E2,4.4384274E0,6.958146E1,1.23561264E2,2.2445837E2,2.4677753E0,1.9732399E0,2.4651878E0,4.7616528E1,2.1964935E1,5.855787E1,6.500339E1],"tree_param":{"num_deleted":"0","num_feature":"78","num_nodes":"15","size_leaf_vector":"1"}},{"base_weights":[1.8051185E-2,-6.624915E-1,4.5142597E-1,-8.823151E-1,-8.376688E-2,5.6274235E-1,-9.02286E-1,-1.2456711E-3,-2.8841742E-3,1.581462E-4,-1.3350168E-3,8.5362705E-4,3.5500084E-3,-2.2572873E-3,1.263446E-4],"categories":[],"categories_nodes":[],"categories_segments":[],"categories_sizes":[],"default_left":[0,0,0,0,0,0,0,0,0,0,0,0,0,0,0],"id":17,"left_children":[1,3,5,7,9,11,13,-1,-1,-1,-1,-1,-1,-1,-1],"loss_changes":[1.2669845E2,2.1255005E1,3.9599804E1,1.7038475E1,4.9769936E0,3.334825E1,6.1484623E0,0E0,0E0,0E0,0E0,0E0,0E0,0E0,0E0],"parents":[2147483647,0,0,1,1,2,2,3,3,4,4,5,5,6,6],"right_children":[2,4,6,8,10,12,14,-1,-1,-1,-1,-1,-1,-1,-1],"split_conditions":[1E0,1.2457141E0,1E0,9.497106E-1,1E0,1E0,1.591153E0,-1.2456711E-3,-2.8841742E-3,1.581462E-4,-1.3350168E-3,8.5362705E-4,3.5500084E-3,-2.2572873E-3,1.263446E-4],"split_indices":[22,77,1,77,10,5,77,0,0,0,0,0,0,0,0],"split_type":[0,0,0,0,0,0,0,0,0,0,0,0,0,0,0],"sum_hessian":[4.2938675E2,1.6703435E2,2.6235242E2,1.21015274E2,4.6019073E1,2.4247223E2,1.9880177E1,9.249285E1,2.8522425E1,3.6432564E1,9.586511E0,2.2564706E2,1.6825167E1,1.4970238E1,4.9099383E0],"tree_param":{"num_deleted":"0","num_feature":"78","num_nodes":"15","size_leaf_vector":"1"}},{"base_weights":[-2.7545715E-2,-1.0898465E0,1.3136638E0,-1.134308E0,5.466207E-1,1.5544155E0,1.0903478E0,-2.1441272E-3,2.3941891E-3,-1.3500508E-3,3.0095694E-3,3.2328463E-3,2.5290379E-3,2.1263305E-3,-1.6391714E-4],"categories":[],"categories_nodes":[],"categories_segments":[],"categories_sizes":[],"default_left":[0,0,0,0,0,0,0,0,0,0,0,0,0,0,0],"id":18,"left_children":[1,3,5,7,9,11,13,-1,-1,-1,-1,-1,-1,-1,-1],"loss_changes":[6.215158E2,1.7773193E1,1.0196289E1,1.368045E1,9.069847E0,3.1032867E0,6.856735E0,0E0,0E0,0E0,0E0,0E0,0E0,0E0,0E0],"parents":[2147483647,0,0,1,1,2,2,3,3,4,4,5,5,6,6],"right_children":[2,4,6,8,10,12,14,-1,-1,-1,-1,-1,-1,-1,-1],"split_conditions":[1E0,1E0,1E0,1E0,1E0,1E0,8.103E3,-2.1441272E-3,2.3941891E-3,-1.3500508E-3,3.0095694E-3,3.2328463E-3,2.5290379E-3,2.1263305E-3,-1.6391714E-4],"split_indices":[2,46,17,14,21,38,75,0,0,0,0,0,0,0,0],"split_type":[0,0,0,0,0,0,0,0,0,0,0,0,0,0,0],"sum_hessian":[4.3602203E2,2.4331996E2,1.9270207E2,2.3691388E2,6.4060817E0,9.2444145E1,1.0025792E2,2.346919E2,2.2219884E0,2.9497178E0,3.456364E0,4.549785E1,4.69463E1,9.556902E1,4.688901E0],"tree_param":{"num_deleted":"0","num_feature":"78","num_nodes":"15","size_leaf_vector":"1"}},{"base_weights":[-1.2685574E-2,-1.0042686E-1,1.5979323E0,-2.6585597E-1,6.2367564E-1,1.1927487E0,1.6774544E0,-3.3650358E-4,-2.1181891E-3,4.0096724E-3,-3.374847E-4,3.1624765E-3,8.769157E-4,3.2344002E-3,1.5232571E-3],"categories":[],"categories_nodes":[],"categories_segments":[],"categories_sizes":[],"default_left":[0,0,0,0,0,0,0,0,0,0,0,0,0,0,0],"id":19,"left_children":[1,3,5,7,9,11,13,-1,-1,-1,-1,-1,-1,-1,-1],"loss_changes":[6.185325E1,4.973608E1,5.2850723E-1,2.4944973E1,9.597529E1,1.4213772E0,9.5876694E-1,0E0,0E0,0E0,0E0,0E0,0E0,0E0,0E0],"parents":[2147483647,0,0,1,1,2,2,3,3,4,4,5,5,6,6],"right_children":[2,4,6,8,10,12,14,-1,-1,-1,-1,-1,-1,-1,-1],"split_conditions":[1E0,1.981418E0,1.068E3,1E0,2.0178115E0,7.365203E-1,2.0178115E0,-3.3650358E-4,-2.1181891E-3,4.0096724E-3,-3.374847E-4,3.1624765E-3,8.769157E-4,3.2344002E-3,1.5232571E-3],"split_indices":[12,77,75,1,77,77,77,0,0,0,0,0,0,0,0],"split_type":[0,0,0,0,0,0,0,0,0,0,0,0,0,0,0],"sum_hessian":[4.374758E2,4.1496368E2,2.2512123E1,3.3784305E2,7.712065E1,3.9558783E0,1.8556246E1,3.0840616E2,2.9436876E1,2.6418688E1,5.070196E1,2.225138E0,1.7307403E0,1.7071634E1,1.4846113E0],"tree_param":{"num_deleted":"0","num_feature":"78","num_nodes":"15","size_leaf_vector":"1"}},{"base_weights":[1.9966895E-2,-1.0178914E0,1.3211429E0,-1.051398E0,1.1285297E0,2.0280167E-1,2.019787E0,-1.7671206E-3,-2.5873354E-3,2.9121786E-3,1.2652923E-3,7.147871E-4,-1.028551E-3,2.8284364E-3,3.7730003E-3],"categories":[],"categories_nodes":[],"categories_segments":[],"categories_sizes":[],"default_left":[0,0,0,0,0,0,0,0,0,0,0,0,0,0,0],"id":20,"left_children":[1,3,5,7,9,11,13,-1,-1,-1,-1,-1,-1,-1,-1],"loss_changes":[5.9373175E2,1.7708572E1,1.5238062E2,7.958008E0,6.453824E-1,1.0455287E1,7.312927E-1,0E0,0E0,0E0,0E0,0E0,0E0,0E0,0E0],"parents":[2147483647,0,0,1,1,2,2,3,3,4,4,5,5,6,6],"right_children":[2,4,6,8,10,12,14,-1,-1,-1,-1,-1,-1,-1,-1],"split_conditions":[1E0,1E0,1E0,1E0,4.751E3,6.721E3,2.2E2,-1.7671206E-3,-2.5873354E-3,2.9121786E-3,1.2652923E-3,7.147871E-4,-1.028551E-3,2.8284364E-3,3.7730003E-3],"split_indices":[2,31,22,10,75,75,75,0,0,0,0,0,0,0,0],"split_type":[0,0,0,0,0,0,0,0,0,0,0,0,0,0,0],"sum_hessian":[4.394596E2,2.4447809E2,1.949815E2,2.4077057E2,3.7075279E0,7.502142E1,1.1996009E2,1.8825139E2,5.251918E1,1.7295573E0,1.9779706E0,6.046288E1,1.4558545E1,4.449902E0,1.15510185E2],"tree_param":{"num_deleted":"0","num_feature":"78","num_nodes":"15","size_leaf_vector":"1"}},{"base_weights":[-2.9329559E-2,-9.8276263E-1,1.2590934E0,-1.0535488E0,3.7149047E-3,1.0480185E0,1.6155169E0,-2.1370053E-3,-1.0106872E-3,2.2692825E-3,-1.4823668E-3,3.3287383E-3,1.489445E-3],"categories":[],"categories_nodes":[],"categories_segments":[],"categories_sizes":[],"default_left":[0,0,0,0,0,0,0,0,0,0,0,0,0],"id":21,"left_children":[1,3,5,7,-1,9,11,-1,-1,-1,-1,-1,-1],"loss_changes":[5.321903E2,5.2887344E1,1.3692017E1,1.2344177E1,0E0,3.8137154E1,9.945999E0,0E0,0E0,0E0,0E0,0E0,0E0],"parents":[2147483647,0,0,1,1,2,2,3,3,5,5,6,6],"right_children":[2,4,6,8,-1,10,12,-1,-1,-1,-1,-1,-1],"split_conditions":[1E0,1E0,1.1247536E0,1.8743482E0,3.7149047E-3,1E0,2.5902562E0,-2.1370053E-3,-1.0106872E-3,2.2692825E-3,-1.4823668E-3,3.3287383E-3,1.489445E-3],"split_indices":[67,5,77,77,0,77,77,0,0,0,0,0,0],"split_type":[0,0,0,0,0,0,0,0,0,0,0,0,0],"sum_hessian":[4.33029E2,2.4888086E2,1.8414813E2,2.4318607E2,5.694798E0,1.15903694E2,6.824444E1,2.0292245E2,4.026361E1,1.0578552E2,1.0118176E1,5.5639725E1,1.2604714E1],"tree_param":{"num_deleted":"0","num_feature":"78","num_nodes":"13","size_leaf_vector":"1"}},{"base_weights":[-6.9010485E-4,2.7988827E-1,-1.2127397E0,3.6803257E-1,-1.4017951E0,-1.277108E0,3.9116372E-3,8.282824E-4,-1.4543424E-3,-2.4752968E-3,-3.1412556E-3,-2.5050864E-3,-1.3520858E-3],"categories":[],"categories_nodes":[],"categories_segments":[],"categories_sizes":[],"default_left":[0,0,0,0,0,0,0,0,0,0,0,0,0],"id":22,"left_children":[1,3,5,7,9,11,-1,-1,-1,-1,-1,-1,-1],"loss_changes":[1.4700412E2,5.2082603E1,1.7660728E1,3.0525013E1,1.08982086E-1,3.2017822E0,0E0,0E0,0E0,0E0,0E0,0E0,0E0],"parents":[2147483647,0,0,1,1,2,2,3,3,4,4,5,5],"right_children":[2,4,6,8,10,12,-1,-1,-1,-1,-1,-1,-1],"split_conditions":[1E0,1E0,1E0,1E0,1E0,1E0,3.9116372E-3,8.282824E-4,-1.4543424E-3,-2.4752968E-3,-3.1412556E-3,-2.5050864E-3,-1.3520858E-3],"split_indices":[69,73,14,63,18,18,0,0,0,0,0,0,0],"split_type":[0,0,0,0,0,0,0,0,0,0,0,0,0],"sum_hessian":[4.3206992E2,3.5091354E2,8.1156364E1,3.3351093E2,1.7402632E1,7.967554E1,1.4808264E0,3.1212814E2,2.1382767E1,1.4704202E1,2.69843E0,6.98668E1,9.808744E0],"tree_param":{"num_deleted":"0","num_feature":"78","num_nodes":"13","size_leaf_vector":"1"}},{"base_weights":[1.0501293E-2,-6.680893E-1,4.30635E-1,-5.800056E-1,-1.4544425E0,-5.8397067E-1,6.9126374E-1,-2.6097775E-3,-8.7157474E-4,-2.5869552E-3,-3.1505115E-3,-1.2213114E-3,3.874985E-3,1.3903764E-3,-1.3541547E-3],"categories":[],"categories_nodes":[],"categories_segments":[],"categories_sizes":[],"default_left":[0,0,0,0,0,0,0,0,0,0,0,0,0,0,0],"id":23,"left_children":[1,3,5,7,9,11,13,-1,-1,-1,-1,-1,-1,-1,-1],"loss_changes":[1.2821564E2,1.1826942E1,7.3488686E1,1.397279E1,7.1983337E-3,1.1625689E1,1.877549E1,0E0,0E0,0E0,0E0,0E0,0E0,0E0,0E0],"parents":[2147483647,0,0,1,1,2,2,3,3,4,4,5,5,6,6],"right_children":[2,4,6,8,10,12,14,-1,-1,-1,-1,-1,-1,-1,-1],"split_conditions":[1E0,1E0,1E0,1E0,1E0,1E0,1E0,-2.6097775E-3,-8.7157474E-4,-2.5869552E-3,-3.1505115E-3,-1.2213114E-3,3.874985E-3,1.3903764E-3,-1.3541547E-3],"split_indices":[22,1,56,55,56,23,1,0,0,0,0,0,0,0,0],"split_type":[0,0,0,0,0,0,0,0,0,0,0,0,0,0,0],"sum_hessian":[4.4952264E2,1.7186734E2,2.776553E2,1.5471107E2,1.7156267E1,5.672103E1,2.2093427E2,1.7886152E1,1.3682492E2,1.4455563E1,2.7007039E0,5.523743E1,1.4835998E0,2.121038E2,8.830458E0],"tree_param":{"num_deleted":"0","num_feature":"78","num_nodes":"15","size_leaf_vector":"1"}},{"base_weights":[2.6236495E-4,1.0142284E-1,-1.0706781E0,1.4716619E-1,-1.3278623E0,-1.1309823E0,1.1642142E-3,6.073597E-4,-4.6941932E-4,-1.9232612E-3,-2.6098492E-3,-2.0181164E-3,-3.1093967E-3],"categories":[],"categories_nodes":[],"categories_segments":[],"categories_sizes":[],"default_left":[0,0,0,0,0,0,0,0,0,0,0,0,0],"id":24,"left_children":[1,3,5,7,9,11,-1,-1,-1,-1,-1,-1,-1],"loss_changes":[4.6267113E1,2.5531456E1,3.8483276E0,2.7405365E1,1.3903427E-1,6.2161636E-1,0E0,0E0,0E0,0E0,0E0,0E0,0E0],"parents":[2147483647,0,0,1,1,2,2,3,3,4,4,5,5],"right_children":[2,4,6,8,10,12,-1,-1,-1,-1,-1,-1,-1],"split_conditions":[1E0,1E0,1E0,1E0,1E0,1E0,1.1642142E-3,6.073597E-4,-4.6941932E-4,-1.9232612E-3,-2.6098492E-3,-2.0181164E-3,-3.1093967E-3],"split_indices":[1,39,21,24,34,24,0,0,0,0,0,0,0],"split_type":[0,0,0,0,0,0,0,0,0,0,0,0,0],"sum_hessian":[4.268669E2,3.9010803E2,3.675887E1,3.78097E2,1.2011048E1,3.553143E1,1.2274408E0,2.605384E2,1.1755861E2,2.9409418E0,9.0701065E0,3.3325237E1,2.2061918E0],"tree_param":{"num_deleted":"0","num_feature":"78","num_nodes":"13","size_leaf_vector":"1"}},{"base_weights":[-8.621284E-4,-9.940863E-1,1.3013003E0,-1.0689837E0,1.4983397E0,1.3602597E0,5.1951915E-1,-2.0212738E-3,2.3893048E-3,1.6002778E-3,3.948818E-3,2.5900882E-3,1.1314326E-3,3.237288E-4,2.566509E-3],"categories":[],"categories_nodes":[],"categories_segments":[],"categories_sizes":[],"default_left":[0,0,0,0,0,0,0,0,0,0,0,0,0,0,0],"id":25,"left_children":[1,3,5,7,9,11,13,-1,-1,-1,-1,-1,-1,-1,-1],"loss_changes":[5.6571796E2,4.6481995E1,8.653381E0,1.2933838E1,2.7432327E0,4.9750366E0,3.9880972E0,0E0,0E0,0E0,0E0,0E0,0E0,0E0,0E0],"parents":[2147483647,0,0,1,1,2,2,3,3,4,4,5,5,6,6],"right_children":[2,4,6,8,10,12,14,-1,-1,-1,-1,-1,-1,-1,-1],"split_conditions":[1E0,1E0,1E0,1E0,1E0,1E0,1E0,-2.0212738E-3,2.3893048E-3,1.6002778E-3,3.948818E-3,2.5900882E-3,1.1314326E-3,3.237288E-4,2.566509E-3],"split_indices":[67,31,47,14,48,76,18,0,0,0,0,0,0,0,0],"split_type":[0,0,0,0,0,0,0,0,0,0,0,0,0,0,0],"sum_hessian":[4.3720877E2,2.4803998E2,1.891688E2,2.4085927E2,7.1807055E0,1.7583398E2,1.3334808E1,2.3863669E2,2.2225866E0,3.708011E0,3.4726944E0,1.6718214E2,8.651839E0,9.625405E0,3.709403E0],"tree_param":{"num_deleted":"0","num_feature":"78","num_nodes":"15","size_leaf_vector":"1"}},{"base_weights":[3.0926824E-2,3.1332704E-1,-1.2268896E0,4.0050775E-1,-1.0366336E0,-1.3996228E0,-1.1512889E0,-1.9240651E-4,1.0764833E-3,-2.299118E-3,-1.8132769E-3,-2.3282836E-3,-2.8730438E-3,-2.2138695E-3,-1.2196811E-3],"categories":[],"categories_nodes":[],"categories_segments":[],"categories_sizes":[],"default_left":[0,0,0,0,0,0,0,0,0,0,0,0,0,0,0],"id":26,"left_children":[1,3,5,7,9,11,13,-1,-1,-1,-1,-1,-1,-1,-1],"loss_changes":[1.5162105E2,4.1066017E1,8.6089325E-1,2.9872417E1,1.2772751E-1,3.0984497E-1,1.118988E0,0E0,0E0,0E0,0E0,0E0,0E0,0E0,0E0],"parents":[2147483647,0,0,1,1,2,2,3,3,4,4,5,5,6,6],"right_children":[2,4,6,8,10,12,14,-1,-1,-1,-1,-1,-1,-1,-1],"split_conditions":[1E0,1E0,1E0,1E0,1E0,1E0,1E0,-1.9240651E-4,1.0764833E-3,-2.299118E-3,-1.8132769E-3,-2.3282836E-3,-2.8730438E-3,-2.2138695E-3,-1.2196811E-3],"split_indices":[69,1,27,35,35,57,1,0,0,0,0,0,0,0,0],"split_type":[0,0,0,0,0,0,0,0,0,0,0,0,0,0,0],"sum_hessian":[4.2664368E2,3.4847946E2,7.816421E1,3.2740585E2,2.10736E1,2.3262522E1,5.4901684E1,8.6398735E1,2.4100713E2,4.1644826E0,1.6909119E1,1.2484749E1,1.0777772E1,5.0250626E1,4.6510606E0],"tree_param":{"num_deleted":"0","num_feature":"78","num_nodes":"15","size_leaf_vector":"1"}},{"base_weights":[3.3342412E-3,-8.1634246E-2,3.1760843E-3,-1.1771576E-1,1.8178556E0,-2.2821222E-3,-1.13460985E-4,4.050749E-3,2.0221693E-3],"categories":[],"categories_nodes":[],"categories_segments":[],"categories_sizes":[],"default_left":[0,0,0,0,0,0,0,0,0],"id":27,"left_children":[1,3,-1,5,7,-1,-1,-1,-1],"loss_changes":[6.354437E1,2.8548954E1,0E0,2.5698828E1,1.844183E0,0E0,0E0,0E0,0E0],"parents":[2147483647,0,0,1,1,3,3,4,4],"right_children":[2,4,-1,6,8,-1,-1,-1,-1],"split_conditions":[1E0,1E0,3.1760843E-3,1E0,1E0,-2.2821222E-3,-1.13460985E-4,4.050749E-3,2.0221693E-3],"split_indices":[12,20,0,44,52,0,0,0,0],"split_type":[0,0,0,0,0,0,0,0,0],"sum_hessian":[4.367002E2,4.1613898E2,2.0561218E1,4.084737E2,7.6653075E0,1.9588343E1,3.8888535E2,4.9459653E0,2.7193422E0],"tree_param":{"num_deleted":"0","num_feature":"78","num_nodes":"9","size_leaf_vector":"1"}},{"base_weights":[1.9749392E-2,3.0510122E-1,-1.2633473E0,-6.0005337E-1,9.573478E-1,-1.3066487E0,2.46114E-3,-2.5434138E-3,-9.2995603E-4,1.8341827E-3,-2.0336362E-3,-3.130613E-3,-2.3897195E-3],"categories":[],"categories_nodes":[],"categories_segments":[],"categories_sizes":[],"default_left":[0,0,0,0,0,0,0,0,0,0,0,0,0],"id":28,"left_children":[1,3,5,7,9,11,-1,-1,-1,-1,-1,-1,-1],"loss_changes":[1.5745224E2,2.0775224E2,8.956184E0,1.108844E1,1.4026993E1,2.607422E-1,0E0,0E0,0E0,0E0,0E0,0E0,0E0],"parents":[2147483647,0,0,1,1,2,2,3,3,4,4,5,5],"right_children":[2,4,6,8,10,12,-1,-1,-1,-1,-1,-1,-1],"split_conditions":[1E0,1E0,1E0,1E0,1E0,1E0,2.46114E-3,-2.5434138E-3,-9.2995603E-4,1.8341827E-3,-2.0336362E-3,-3.130613E-3,-2.3897195E-3],"split_indices":[69,22,14,55,19,51,0,0,0,0,0,0,0],"split_type":[0,0,0,0,0,0,0,0,0,0,0,0,0],"sum_hessian":[4.2983466E2,3.516961E2,7.8138565E1,1.4729526E2,2.0440085E2,7.69036E1,1.2349615E0,1.6400578E1,1.3089468E2,2.0121149E2,3.1893604E0,2.6955085E0,7.420809E1],"tree_param":{"num_deleted":"0","num_feature":"78","num_nodes":"13","size_leaf_vector":"1"}},{"base_weights":[-4.315294E-3,-9.79763E-1,1.2694366E0,-1.0493008E0,2.8973639E-3,1.1883446E0,1.6547146E0,-2.0251786E-3,3.5147094E-3,2.3304452E-3,1.2937001E-3,3.387152E-3,1.6768571E-3],"categories":[],"categories_nodes":[],"categories_segments":[],"categories_sizes":[],"default_left":[0,0,0,0,0,0,0,0,0,0,0,0,0],"id":29,"left_children":[1,3,5,7,-1,9,11,-1,-1,-1,-1,-1,-1],"loss_changes":[5.360902E2,4.3395813E1,5.649597E0,3.1266205E1,0E0,5.2310333E0,4.0511475E0,0E0,0E0,0E0,0E0,0E0,0E0],"parents":[2147483647,0,0,1,1,2,2,3,3,5,5,6,6],"right_children":[2,4,6,8,-1,10,12,-1,-1,-1,-1,-1,-1],"split_conditions":[1E0,1E0,1E0,1E0,2.8973639E-3,1E0,1E0,-2.0251786E-3,3.5147094E-3,2.3304452E-3,1.2937001E-3,3.387152E-3,1.6768571E-3],"split_indices":[67,31,24,20,0,23,10,0,0,0,0,0,0],"split_type":[0,0,0,0,0,0,0,0,0,0,0,0,0],"sum_hessian":[4.3126837E2,2.4424614E2,1.8702223E2,2.3780557E2,6.440565E0,1.5484041E2,3.218183E1,2.3434636E2,3.4592175E0,1.3531613E2,1.9524271E1,2.5989695E1,6.192138E0],"tree_param":{"num_deleted":"0","num_feature":"78","num_nodes":"13","size_leaf_vector":"1"}},{"base_weights":[3.431844E-2,-1.023145E0,1.3187411E0,-1.0707511E0,1.8912609E0,1.3950402E-1,2.018561E0,-2.2964962E-3,-1.7866113E-3,3.9181975E-3,2.6707863E-3,4.997092E-4,-1.1707011E-3,3.7979353E-3,2.6273865E-3],"categories":[],"categories_nodes":[],"categories_segments":[],"categories_sizes":[],"default_left":[0,0,0,0,0,0,0,0,0,0,0,0,0,0,0],"id":30,"left_children":[1,3,5,7,9,11,13,-1,-1,-1,-1,-1,-1,-1,-1],"loss_changes":[5.823705E2,3.2830032E1,1.5974738E2,4.0345154E0,7.9624176E-2,7.280269E0,2.0644531E0,0E0,0E0,0E0,0E0,0E0,0E0,0E0,0E0],"parents":[2147483647,0,0,1,1,2,2,3,3,4,4,5,5,6,6],"right_children":[2,4,6,8,10,12,14,-1,-1,-1,-1,-1,-1,-1,-1],"split_conditions":[1E0,1E0,1E0,1E0,5.948E3,1E0,1E0,-2.2964962E-3,-1.7866113E-3,3.9181975E-3,2.6707863E-3,4.997092E-4,-1.1707011E-3,3.7979353E-3,2.6273865E-3],"split_indices":[2,5,22,22,75,30,3,0,0,0,0,0,0,0,0],"split_type":[0,0,0,0,0,0,0,0,0,0,0,0,0,0,0],"sum_hessian":[4.2857227E2,2.350644E2,1.9350786E2,2.3134865E2,3.7157614E0,7.211307E1,1.213948E2,8.863713E1,1.427115E2,2.229555E0,1.4862065E0,6.174862E1,1.036445E1,1.1495736E2,6.437435E0],"tree_param":{"num_deleted":"0","num_feature":"78","num_nodes":"15","size_leaf_vector":"1"}},{"base_weights":[-1.9424982E-2,-9.5889586E-1,1.278851E0,-1.0746719E0,3.521381E-1,1.851571E-1,1.9180588E0,-2.1355303E-3,-7.559262E-4,3.6745365E-3,-5.325076E-4,1.8505107E-4,1.8155728E-3,3.6035206E-3,2.674285E-3],"categories":[],"categories_nodes":[],"categories_segments":[],"categories_sizes":[],"default_left":[0,0,0,0,0,0,0,0,0,0,0,0,0,0,0],"id":31,"left_children":[1,3,5,7,9,11,13,-1,-1,-1,-1,-1,-1,-1,-1],"loss_changes":[5.309474E2,3.837216E1,1.2772977E2,1.2097443E1,2.153149E1,4.566885E0,1.2409363E0,0E0,0E0,0E0,0E0,0E0,0E0,0E0,0E0],"parents":[2147483647,0,0,1,1,2,2,3,3,4,4,5,5,6,6],"right_children":[2,4,6,8,10,12,14,-1,-1,-1,-1,-1,-1,-1,-1],"split_conditions":[1E0,1E0,1E0,1E0,1E0,1E0,1E0,-2.1355303E-3,-7.559262E-4,3.6745365E-3,-5.325076E-4,1.8505107E-4,1.8155728E-3,3.6035206E-3,2.674285E-3],"split_indices":[67,70,22,18,43,21,3,0,0,0,0,0,0,0,0],"split_type":[0,0,0,0,0,0,0,0,0,0,0,0,0,0,0],"sum_hessian":[4.35112E2,2.5245456E2,1.8265744E2,2.3198613E2,2.0468418E1,6.7423615E1,1.15233826E2,2.0747168E2,2.451446E1,5.704292E0,1.4764126E1,6.099876E1,6.4248524E0,1.0854659E2,6.6872325E0],"tree_param":{"num_deleted":"0","num_feature":"78","num_nodes":"15","size_leaf_vector":"1"}},{"base_weights":[5.2181557E-3,-7.09474E-2,9.043633E-1,1.1988436E0,-1.2691373E-1,1.3552337E0,5.2483153E-1,8.718369E-4,2.9834518E-3,-2.2771228E-3,-1.3488623E-4,1.8909157E-3,3.9421553E-3,1.3190611E-3,-2.1679918E-4],"categories":[],"categories_nodes":[],"categories_segments":[],"categories_sizes":[],"default_left":[0,0,0,0,0,0,0,0,0,0,0,0,0,0,0],"id":32,"left_children":[1,3,5,7,9,11,13,-1,-1,-1,-1,-1,-1,-1,-1],"loss_changes":[2.9777802E1,2.8502886E1,5.7394466E0,5.005718E0,2.289109E1,3.7775803E0,2.2465005E0,0E0,0E0,0E0,0E0,0E0,0E0,0E0,0E0],"parents":[2147483647,0,0,1,1,2,2,3,3,4,4,5,5,6,6],"right_children":[2,4,6,8,10,12,14,-1,-1,-1,-1,-1,-1,-1,-1],"split_conditions":[1E0,1E0,1E0,1E0,1E0,1E0,5.419E3,8.718369E-4,2.9834518E-3,-2.2771228E-3,-1.3488623E-4,1.8909157E-3,3.9421553E-3,1.3190611E-3,-2.1679918E-4],"split_indices":[70,51,17,49,55,58,75,0,0,0,0,0,0,0,0],"split_type":[0,0,0,0,0,0,0,0,0,0,0,0,0,0,0],"sum_hessian":[4.34621E2,4.0076477E2,3.385622E1,1.683192E1,3.8393286E2,1.5356343E1,1.8499874E1,6.162355E0,1.0669567E1,1.7845383E1,3.660875E2,1.0885972E1,4.4703712E0,1.4309857E1,4.1900177E0],"tree_param":{"num_deleted":"0","num_feature":"78","num_nodes":"15","size_leaf_vector":"1"}},{"base_weights":[2.214918E-2,-9.546819E-1,1.3336332E0,-1.065491E0,1.7720675E0,1.4252046E0,2.357014E-1,-2.2401814E-3,-9.718037E-4,4.000121E-3,2.279703E-3,2.8255756E-3,1.4755941E-3,1.9714264E-3,-6.574242E-4],"categories":[],"categories_nodes":[],"categories_segments":[],"categories_sizes":[],"default_left":[0,0,0,0,0,0,0,0,0,0,0,0,0,0,0],"id":33,"left_children":[1,3,5,7,9,11,13,-1,-1,-1,-1,-1,-1,-1,-1],"loss_changes":[5.5674005E2,7.544469E1,1.8617615E1,1.8604187E1,1.7837048E0,1.070224E1,7.088863E0,0E0,0E0,0E0,0E0,0E0,0E0,0E0,0E0],"parents":[2147483647,0,0,1,1,2,2,3,3,4,4,5,5,6,6],"right_children":[2,4,6,8,10,12,14,-1,-1,-1,-1,-1,-1,-1,-1],"split_conditions":[1E0,1E0,1E0,1.591153E0,2.1633129E-1,1E0,-1.349463E-1,-2.2401814E-3,-9.718037E-4,4.000121E-3,2.279703E-3,2.8255756E-3,1.4755941E-3,1.9714264E-3,-6.574242E-4],"split_indices":[67,12,63,77,77,23,77,0,0,0,0,0,0,0,0],"split_type":[0,0,0,0,0,0,0,0,0,0,0,0,0,0,0],"sum_hessian":[4.3438083E2,2.4896887E2,1.8541197E2,2.3930496E2,9.663907E0,1.711109E2,1.4301065E1,1.8882294E2,5.0482025E1,5.453607E0,4.2103E0,1.473732E2,2.37377E1,5.9175296E0,8.383535E0],"tree_param":{"num_deleted":"0","num_feature":"78","num_nodes":"15","size_leaf_vector":"1"}},{"base_weights":[-2.3606597E-2,-9.469487E-1,1.264751E0,-1.0148458E0,1.814172E0,1.3627344E0,5.682421E-1,-2.1425476E-3,-9.446875E-4,3.938802E-3,1.8140818E-3,2.9228001E-3,1.7198618E-3,5.235593E-4,2.0869055E-3],"categories":[],"categories_nodes":[],"categories_segments":[],"categories_sizes":[],"default_left":[0,0,0,0,0,0,0,0,0,0,0,0,0,0,0],"id":34,"left_children":[1,3,5,7,9,11,13,-1,-1,-1,-1,-1,-1,-1,-1],"loss_changes":[5.124701E2,4.7229187E1,1.2196625E1,1.7515015E1,1.3731613E0,1.4598602E1,3.5336475E0,0E0,0E0,0E0,0E0,0E0,0E0,0E0,0E0],"parents":[2147483647,0,0,1,1,2,2,3,3,4,4,5,5,6,6],"right_children":[2,4,6,8,10,12,14,-1,-1,-1,-1,-1,-1,-1,-1],"split_conditions":[1E0,1E0,1E0,1.4296736E0,8.479434E-1,1E0,1.0176536E0,-2.1425476E-3,-9.446875E-4,3.938802E-3,1.8140818E-3,2.9228001E-3,1.7198618E-3,5.235593E-4,2.0869055E-3],"split_indices":[67,31,23,77,77,34,77,0,0,0,0,0,0,0,0],"split_type":[0,0,0,0,0,0,0,0,0,0,0,0,0,0,0],"sum_hessian":[4.3059314E2,2.5084421E2,1.7974893E2,2.4488562E2,5.9586005E0,1.5749693E2,2.2251995E1,1.909766E2,5.3909027E1,4.221574E0,1.7370267E0,1.0505244E2,5.2444492E1,1.4825793E1,7.426202E0],"tree_param":{"num_deleted":"0","num_feature":"78","num_nodes":"15","size_leaf_vector":"1"}},{"base_weights":[5.6480404E-2,-6.236932E-1,4.7667092E-1,-1.3873506E0,-5.311433E-1,-5.159415E-1,7.015398E-1,-3.1825257E-3,-1.7720504E-3,-1.933752E-3,-6.806473E-4,-1.4006956E-3,1.7426496E-3,3.33324E-3,1.1607183E-3],"categories":[],"categories_nodes":[],"categories_segments":[],"categories_sizes":[],"default_left":[0,0,0,0,0,0,0,0,0,0,0,0,0,0,0],"id":35,"left_children":[1,3,5,7,9,11,13,-1,-1,-1,-1,-1,-1,-1,-1],"loss_changes":[1.2287863E2,1.153022E1,5.935471E1,2.356884E0,1.2266678E1,1.7286106E1,1.7681053E1,0E0,0E0,0E0,0E0,0E0,0E0,0E0,0E0],"parents":[2147483647,0,0,1,1,2,2,3,3,4,4,5,5,6,6],"right_children":[2,4,6,8,10,12,14,-1,-1,-1,-1,-1,-1,-1,-1],"split_conditions":[1E0,1E0,1E0,1E0,1E0,1E0,1E0,-3.1825257E-3,-1.7720504E-3,-1.933752E-3,-6.806473E-4,-1.4006956E-3,1.7426496E-3,3.33324E-3,1.1607183E-3],"split_indices":[22,55,56,0,27,52,43,0,0,0,0,0,0,0,0],"split_type":[0,0,0,0,0,0,0,0,0,0,0,0,0,0,0],"sum_hessian":[4.2973843E2,1.6408356E2,2.6565488E2,1.7585045E1,1.4649852E2,4.904256E1,2.1661232E2,9.7689085E0,7.816137E0,3.5287434E1,1.1121108E2,4.213706E1,6.9055033E0,1.3655122E1,2.029572E2],"tree_param":{"num_deleted":"0","num_feature":"78","num_nodes":"15","size_leaf_vector":"1"}},{"base_weights":[-2.4589757E-2,-1.4107678E0,2.8803669E-2,-1.5472633E0,-1.0277855E0,1.732951E0,-5.065246E-2,-2.1490226E-3,-3.1699399E-3,-1.2726381E-3,-3.0031775E-3,1.7310047E-3,3.5099653E-3,-1.5715277E-4,3.2949229E-3],"categories":[],"categories_nodes":[],"categories_segments":[],"categories_sizes":[],"default_left":[0,0,0,0,0,0,0,0,0,0,0,0,0,0,0],"id":36,"left_children":[1,3,5,7,9,11,13,-1,-1,-1,-1,-1,-1,-1,-1],"loss_changes":[3.1867731E1,6.757984E-1,5.615389E1,5.3790665E-1,7.9754734E-1,2.2181053E0,2.482221E1,0E0,0E0,0E0,0E0,0E0,0E0,0E0,0E0],"parents":[2147483647,0,0,1,1,2,2,3,3,4,4,5,5,6,6],"right_children":[2,4,6,8,10,12,14,-1,-1,-1,-1,-1,-1,-1,-1],"split_conditions":[1E0,6.883E3,1E0,2.109E3,8.001E3,1.068E3,1E0,-2.1490226E-3,-3.1699399E-3,-1.2726381E-3,-3.0031775E-3,1.7310047E-3,3.5099653E-3,-1.5715277E-4,3.2949229E-3],"split_indices":[55,75,43,75,75,75,20,0,0,0,0,0,0,0,0],"split_type":[0,0,0,0,0,0,0,0,0,0,0,0,0,0,0],"sum_hessian":[4.3041568E2,1.5869742E1,4.1454593E2,1.147576E1,4.393982E0,1.8374523E1,3.961714E2,3.6646569E0,7.811104E0,2.9297593E0,1.4642228E0,3.2210767E0,1.5153446E1,3.8899454E2,7.17686E0],"tree_param":{"num_deleted":"0","num_feature":"78","num_nodes":"15","size_leaf_vector":"1"}},{"base_weights":[1.9032275E-2,3.0046093E-1,-1.1960068E0,1.1116583E-1,1.0413021E0,-1.2675178E0,-8.1578964E-1,-1.9713682E-4,7.871839E-4,4.0065395E-3,5.25335E-4,-2.1284458E-3,-2.8457937E-3,-1.771838E-3,5.179957E-4],"categories":[],"categories_nodes":[],"categories_segments":[],"categories_sizes":[],"default_left":[0,0,0,0,0,0,0,0,0,0,0,0,0,0,0],"id":37,"left_children":[1,3,5,7,9,11,13,-1,-1,-1,-1,-1,-1,-1,-1],"loss_changes":[1.4690993E2,4.8906948E1,2.0934372E0,1.8992138E1,6.0286507E1,1.9808578E0,2.045868E0,0E0,0E0,0E0,0E0,0E0,0E0,0E0,0E0],"parents":[2147483647,0,0,1,1,2,2,3,3,4,4,5,5,6,6],"right_children":[2,4,6,8,10,12,14,-1,-1,-1,-1,-1,-1,-1,-1],"split_conditions":[1E0,2E0,1.703201E0,1E0,2.0178115E0,8.86684E-1,6.683E3,-1.9713682E-4,7.871839E-4,4.0065395E-3,5.25335E-4,-2.1284458E-3,-2.8457937E-3,-1.771838E-3,5.179957E-4],"split_indices":[69,77,77,11,77,77,75,0,0,0,0,0,0,0,0],"split_type":[0,0,0,0,0,0,0,0,0,0,0,0,0,0,0],"sum_hessian":[4.294229E2,3.4872592E2,8.0697E1,2.7784714E2,7.087876E1,6.77258E1,1.29712E1,1.6413033E2,1.1371683E2,2.849092E1,4.2387844E1,4.7433903E1,2.0291897E1,1.1503274E1,1.4679258E0],"tree_param":{"num_deleted":"0","num_feature":"78","num_nodes":"15","size_leaf_vector":"1"}},{"base_weights":[-2.1939477E-2,-6.88628E-1,3.962915E-1,-7.147059E-1,3.839976E-3,4.730488E-1,-6.992659E-1,-1.189919E-3,-2.785675E-3,8.21373E-4,3.6318945E-3,-7.436532E-4,-2.757724E-3],"categories":[],"categories_nodes":[],"categories_segments":[],"categories_sizes":[],"default_left":[0,0,0,0,0,0,0,0,0,0,0,0,0],"id":38,"left_children":[1,3,5,7,-1,9,11,-1,-1,-1,-1,-1,-1],"loss_changes":[1.2068065E2,1.2166527E1,2.2398876E1,9.323265E0,0E0,1.0830151E1,4.0446367E0,0E0,0E0,0E0,0E0,0E0,0E0],"parents":[2147483647,0,0,1,1,2,2,3,3,5,5,6,6],"right_children":[2,4,6,8,-1,10,12,-1,-1,-1,-1,-1,-1],"split_conditions":[1E0,1E0,1E0,1E0,3.839976E-3,1E0,6.153E3,-1.189919E-3,-2.785675E-3,8.21373E-4,3.6318945E-3,-7.436532E-4,-2.757724E-3],"split_indices":[22,20,1,58,0,20,75,0,0,0,0,0,0],"split_type":[0,0,0,0,0,0,0,0,0,0,0,0,0],"sum_hessian":[4.326133E2,1.6674532E2,2.6586798E2,1.6525925E2,1.4860749E0,2.4851338E2,1.7354609E1,1.515885E2,1.3670743E1,2.4380896E2,4.704421E0,1.2713922E1,4.640686E0],"tree_param":{"num_deleted":"0","num_feature":"78","num_nodes":"13","size_leaf_vector":"1"}},{"base_weights":[3.56837E-2,-1.0194463E0,1.3393853E0,-1.0563017E0,4.0019057E-3,1.4856861E0,9.5501363E-1,-2.0379308E-3,2.1025494E-3,2.615107E-3,3.7931171E-3,1.6848678E-3,3.787036E-3],"categories":[],"categories_nodes":[],"categories_segments":[],"categories_sizes":[],"default_left":[0,0,0,0,0,0,0,0,0,0,0,0,0],"id":39,"left_children":[1,3,5,7,-1,9,11,-1,-1,-1,-1,-1,-1],"loss_changes":[6.0518054E2,2.87305E1,1.0924469E1,2.3406677E1,0E0,5.5996704E0,2.499771E0,0E0,0E0,0E0,0E0,0E0,0E0],"parents":[2147483647,0,0,1,1,2,2,3,3,5,5,6,6],"right_children":[2,4,6,8,-1,10,12,-1,-1,-1,-1,-1,-1],"split_conditions":[1E0,1E0,1E0,1E0,4.0019057E-3,1E0,1E0,-2.0379308E-3,2.1025494E-3,2.615107E-3,3.7931171E-3,1.6848678E-3,3.787036E-3],"split_indices":[2,20,34,7,0,70,42,0,0,0,0,0,0],"split_type":[0,0,0,0,0,0,0,0,0,0,0,0,0],"sum_hessian":[4.3974823E2,2.430563E2,1.9669191E2,2.4033804E2,2.7182558E0,1.4225848E2,5.4433434E1,2.3563773E2,4.7003136E0,1.2612556E2,1.6132929E1,5.2442898E1,1.9905351E0],"tree_param":{"num_deleted":"0","num_feature":"78","num_nodes":"13","size_leaf_vector":"1"}},{"base_weights":[1.0946417E-3,-7.7145797E-1,2.7050677E-1,-8.49213E-1,3.5554692E-1,1.8238008E-1,1.7784516E0,-1.6497462E-3,1.359218E-3,1.6077057E-3,-3.0973158E-4,2.8622217E-4,3.3145677E-3,3.5266208E-3,2.7967119E-3],"categories":[],"categories_nodes":[],"categories_segments":[],"categories_sizes":[],"default_left":[0,0,0,0,0,0,0,0,0,0,0,0,0,0,0],"id":40,"left_children":[1,3,5,7,9,11,13,-1,-1,-1,-1,-1,-1,-1,-1],"loss_changes":[9.27456E1,1.0126595E1,4.3872734E1,7.174301E0,2.0262325E0,1.3936565E1,3.2815933E-1,0E0,0E0,0E0,0E0,0E0,0E0,0E0,0E0],"parents":[2147483647,0,0,1,1,2,2,3,3,4,4,5,5,6,6],"right_children":[2,4,6,8,10,12,14,-1,-1,-1,-1,-1,-1,-1,-1],"split_conditions":[1E0,1E0,1E0,1E0,1E0,1E0,1E0,-1.6497462E-3,1.359218E-3,1.6077057E-3,-3.0973158E-4,2.8622217E-4,3.3145677E-3,3.5266208E-3,2.7967119E-3],"split_indices":[56,23,12,12,3,14,21,0,0,0,0,0,0,0,0],"split_type":[0,0,0,0,0,0,0,0,0,0,0,0,0,0,0],"sum_hessian":[4.454027E2,1.15115875E2,3.3028683E2,1.07709366E2,7.406508E0,3.1215604E2,1.8130798E1,1.0499104E2,2.7183263E0,3.706337E0,3.7001708E0,3.069533E2,5.202701E0,1.192325E1,6.207549E0],"tree_param":{"num_deleted":"0","num_feature":"78","num_nodes":"15","size_leaf_vector":"1"}},{"base_weights":[1.0453083E-2,-9.979697E-1,1.2975271E0,-1.035267E0,3.732787E-1,1.3641545E0,1.3664553E-1,-2.0519916E-3,-7.4467645E-4,-1.9307524E-3,2.904339E-3,2.6791077E-3,1.4874102E-3,2.1651884E-5,1.5496768E-3],"categories":[],"categories_nodes":[],"categories_segments":[],"categories_sizes":[],"default_left":[0,0,0,0,0,0,0,0,0,0,0,0,0,0,0],"id":41,"left_children":[1,3,5,7,9,11,13,-1,-1,-1,-1,-1,-1,-1,-1],"loss_changes":[5.6326337E2,1.2483429E1,1.4727264E1,1.0876617E1,1.1190206E1,8.233765E0,9.1409504E-1,0E0,0E0,0E0,0E0,0E0,0E0,0E0,0E0],"parents":[2147483647,0,0,1,1,2,2,3,3,4,4,5,5,6,6],"right_children":[2,4,6,8,10,12,14,-1,-1,-1,-1,-1,-1,-1,-1],"split_conditions":[1E0,1E0,1E0,1E0,1E0,1E0,1E0,-2.0519916E-3,-7.4467645E-4,-1.9307524E-3,2.904339E-3,2.6791077E-3,1.4874102E-3,2.1651884E-5,1.5496768E-3],"split_indices":[2,46,63,18,65,23,24,0,0,0,0,0,0,0,0],"split_type":[0,0,0,0,0,0,0,0,0,0,0,0,0,0,0],"sum_hessian":[4.337759E2,2.4322865E2,1.9054724E2,2.3681198E2,6.416672E0,1.8018806E2,1.0359186E1,2.12321E2,2.449097E1,2.9428306E0,3.4738417E0,1.5693214E2,2.3255922E1,8.876723E0,1.4824628E0],"tree_param":{"num_deleted":"0","num_feature":"78","num_nodes":"15","size_leaf_vector":"1"}},{"base_weights":[-9.055527E-3,-1.9554958E-1,7.9287285E-1,-2.7370483E-1,1.6668165E0,2.075862E0,-9.942962E-3,-2.4853475E-4,-1.1701692E-3,3.6987697E-3,2.41187E-3,1.0339987E-3,3.951049E-3,3.017533E-4,-1.4831971E-3],"categories":[],"categories_nodes":[],"categories_segments":[],"categories_sizes":[],"default_left":[0,0,0,0,0,0,0,0,0,0,0,0,0,0,0],"id":42,"left_children":[1,3,5,7,9,11,13,-1,-1,-1,-1,-1,-1,-1,-1],"loss_changes":[6.7549644E1,5.3383305E1,8.777991E1,1.7568115E1,1.5191612E0,2.7532043E0,7.1952205E0,0E0,0E0,0E0,0E0,0E0,0E0,0E0,0E0],"parents":[2147483647,0,0,1,1,2,2,3,3,4,4,5,5,6,6],"right_children":[2,4,6,8,10,12,14,-1,-1,-1,-1,-1,-1,-1,-1],"split_conditions":[1.981418E0,1E0,2.0178115E0,1E0,1E0,2E0,1E0,-2.4853475E-4,-1.1701692E-3,3.6987697E-3,2.41187E-3,1.0339987E-3,3.951049E-3,3.017533E-4,-1.4831971E-3],"split_indices":[77,5,77,77,10,77,10,0,0,0,0,0,0,0,0],"split_type":[0,0,0,0,0,0,0,0,0,0,0,0,0,0,0],"sum_hessian":[4.5146765E2,3.6634677E2,8.512088E1,3.5167386E2,1.4672891E1,3.270157E1,5.2419315E1,2.532017E2,9.847217E1,7.4592237E0,7.2136664E0,1.237067E0,3.14645E1,4.308203E1,9.337285E0],"tree_param":{"num_deleted":"0","num_feature":"78","num_nodes":"15","size_leaf_vector":"1"}},{"base_weights":[-8.113121E-3,-1.084849E0,1.2981246E0,-1.1268371E0,-4.872715E-1,1.7927074E-1,1.9235249E0,-2.2011616E-3,-1.1497058E-3,3.8282626E-4,-1.6946149E-3,1.8569498E-4,2.4173185E-3,3.3778725E-3,3.8245374E-3],"categories":[],"categories_nodes":[],"categories_segments":[],"categories_sizes":[],"default_left":[0,0,0,0,0,0,0,0,0,0,0,0,0,0,0],"id":43,"left_children":[1,3,5,7,9,11,13,-1,-1,-1,-1,-1,-1,-1,-1],"loss_changes":[6.028284E2,5.8401184E0,1.3547955E2,6.787201E0,4.6508093E0,6.1736565E0,1.3745117E0,0E0,0E0,0E0,0E0,0E0,0E0,0E0,0E0],"parents":[2147483647,0,0,1,1,2,2,3,3,4,4,5,5,6,6],"right_children":[2,4,6,8,10,12,14,-1,-1,-1,-1,-1,-1,-1,-1],"split_conditions":[1E0,1E0,1E0,1E0,1E0,1E0,1E0,-2.2011616E-3,-1.1497058E-3,3.8282626E-4,-1.6946149E-3,1.8569498E-4,2.4173185E-3,3.3778725E-3,3.8245374E-3],"split_indices":[2,70,22,18,17,18,17,0,0,0,0,0,0,0,0],"split_type":[0,0,0,0,0,0,0,0,0,0,0,0,0,0,0],"sum_hessian":[4.284099E2,2.3484412E2,1.9356581E2,2.193436E2,1.5500512E1,6.944893E1,1.24116875E2,1.9535301E2,2.3990591E1,5.9310384E0,9.569474E0,6.499816E1,4.450766E0,7.374438E1,5.03725E1],"tree_param":{"num_deleted":"0","num_feature":"78","num_nodes":"15","size_leaf_vector":"1"}},{"base_weights":[7.86442E-4,-8.67814E-1,3.0479398E-1,-1.033977E0,-3.856761E-1,3.464617E-1,-2.1582765E-3,-1.7974719E-3,-2.6900126E-3,-5.7901343E-4,-1.6359924E-3,5.839323E-4,2.8060644E-3],"categories":[],"categories_nodes":[],"categories_segments":[],"categories_sizes":[],"default_left":[0,0,0,0,0,0,0,0,0,0,0,0,0],"id":44,"left_children":[1,3,5,7,9,11,-1,-1,-1,-1,-1,-1,-1],"loss_changes":[1.1778527E2,9.224655E0,2.0282139E1,2.1379623E0,1.0553112E0,1.1648838E1,0E0,0E0,0E0,0E0,0E0,0E0,0E0],"parents":[2147483647,0,0,1,1,2,2,3,3,4,4,5,5],"right_children":[2,4,6,8,10,12,-1,-1,-1,-1,-1,-1,-1],"split_conditions":[1E0,1E0,1E0,1E0,1E0,1E0,-2.1582765E-3,-1.7974719E-3,-2.6900126E-3,-5.7901343E-4,-1.6359924E-3,5.839323E-4,2.8060644E-3],"split_indices":[56,57,73,39,49,36,0,0,0,0,0,0,0],"split_type":[0,0,0,0,0,0,0,0,0,0,0,0,0],"sum_hessian":[4.458529E2,1.1554268E2,3.3031024E2,8.584335E1,2.9699322E1,3.2128146E2,9.02878E0,7.484981E1,1.0993547E1,2.6042376E1,3.6569467E0,3.1306802E2,8.213445E0],"tree_param":{"num_deleted":"0","num_feature":"78","num_nodes":"13","size_leaf_vector":"1"}},{"base_weights":[7.910934E-3,-9.644141E-1,1.3179659E0,-9.9936056E-1,1.8356048E0,2.3694032E-1,1.9517026E0,-2.4016541E-3,-1.501447E-3,3.91026E-3,2.444642E-3,1.5682493E-4,1.8892587E-3,3.7862104E-3,3.4683398E-3],"categories":[],"categories_nodes":[],"categories_segments":[],"categories_sizes":[],"default_left":[0,0,0,0,0,0,0,0,0,0,0,0,0,0,0],"id":45,"left_children":[1,3,5,7,9,11,13,-1,-1,-1,-1,-1,-1,-1,-1],"loss_changes":[5.457863E2,2.4248566E1,1.250054E2,1.3527557E1,1.5750408E-1,8.04994E0,4.5892334E-1,0E0,0E0,0E0,0E0,0E0,0E0,0E0,0E0],"parents":[2147483647,0,0,1,1,2,2,3,3,4,4,5,5,6,6],"right_children":[2,4,6,8,10,12,14,-1,-1,-1,-1,-1,-1,-1,-1],"split_conditions":[1E0,1E0,1E0,1E0,1E0,1E0,1E0,-2.4016541E-3,-1.501447E-3,3.91026E-3,2.444642E-3,1.5682493E-4,1.8892587E-3,3.7862104E-3,3.4683398E-3],"split_indices":[67,20,22,22,69,65,45,0,0,0,0,0,0,0,0],"split_type":[0,0,0,0,0,0,0,0,0,0,0,0,0,0,0],"sum_hessian":[4.2827145E2,2.458371E2,1.8243434E2,2.428702E2,2.9669054E0,6.747432E1,1.1496002E2,9.398956E1,1.4888063E2,1.7308216E0,1.2360837E0,5.6585655E1,1.0888663E1,5.162935E1,6.3330677E1],"tree_param":{"num_deleted":"0","num_feature":"78","num_nodes":"15","size_leaf_vector":"1"}},{"base_weights":[-1.2657581E-2,7.994059E-2,-1.0646204E0,-1.3324643E0,1.4589986E-1,-1.910889E-3,-3.020662E-3,-2.9798837E-3,-1.7869528E-3,1.6231507E-4,2.624793E-3],"categories":[],"categories_nodes":[],"categories_segments":[],"categories_sizes":[],"default_left":[0,0,0,0,0,0,0,0,0,0,0],"id":46,"left_children":[1,3,5,7,9,-1,-1,-1,-1,-1,-1],"loss_changes":[4.360022E1,3.8345654E1,5.0336075E-1,1.7120667E0,2.9104427E1,0E0,0E0,0E0,0E0,0E0,0E0],"parents":[2147483647,0,0,1,1,2,2,3,3,4,4],"right_children":[2,4,6,8,10,-1,-1,-1,-1,-1,-1],"split_conditions":[1E0,1E0,1E0,1E0,1E0,-1.910889E-3,-3.020662E-3,-2.9798837E-3,-1.7869528E-3,1.6231507E-4,2.624793E-3],"split_indices":[1,44,10,0,49,0,0,0,0,0,0],"split_type":[0,0,0,0,0,0,0,0,0,0,0],"sum_hessian":[4.474084E2,4.1129672E2,3.6111656E1,1.8264906E1,3.9303183E2,3.4405495E1,1.7061646E0,1.0227488E1,8.037418E0,3.759171E2,1.711471E1],"tree_param":{"num_deleted":"0","num_feature":"78","num_nodes":"11","size_leaf_vector":"1"}},{"base_weights":[-6.052203E-2,2.9711822E-2,-1.0266336E0,-1.6495684E-2,1.1920991E0,-1.0834783E0,-6.467844E-4,2.6919066E-5,-2.3797369E-3,2.679287E-3,-2.0173998E-3,-2.0560676E-3,-1.0040724E-3],"categories":[],"categories_nodes":[],"categories_segments":[],"categories_sizes":[],"default_left":[0,0,0,0,0,0,0,0,0,0,0,0,0],"id":47,"left_children":[1,3,5,7,9,11,-1,-1,-1,-1,-1,-1,-1],"loss_changes":[3.793941E1,2.1384031E1,1.3935928E0,1.5077984E1,9.003317E0,4.3659592E-1,0E0,0E0,0E0,0E0,0E0,0E0,0E0],"parents":[2147483647,0,0,1,1,2,2,3,3,4,4,5,5],"right_children":[2,4,6,8,10,12,-1,-1,-1,-1,-1,-1,-1],"split_conditions":[1E0,1E0,1E0,1E0,1E0,1E0,-6.467844E-4,2.6919066E-5,-2.3797369E-3,2.679287E-3,-2.0173998E-3,-2.0560676E-3,-1.0040724E-3],"split_indices":[1,49,38,68,76,76,0,0,0,0,0,0,0],"split_type":[0,0,0,0,0,0,0,0,0,0,0,0,0],"sum_hessian":[4.3506992E2,3.9799454E2,3.7075367E1,3.8287308E2,1.5121484E1,3.414959E1,2.9257805E0,3.7382724E2,9.045829E0,1.3635719E1,1.4857646E0,3.2438477E1,1.7111095E0],"tree_param":{"num_deleted":"0","num_feature":"78","num_nodes":"13","size_leaf_vector":"1"}},{"base_weights":[2.005167E-2,-9.363159E-1,1.2425258E0,-1.0457426E0,5.331383E-1,1.1052972E0,1.6347597E0,-2.1713013E-3,-1.0634899E-3,5.42518E-4,3.7750357E-3,2.408458E-3,8.8031404E-4,3.802491E-3,2.0257486E-3],"categories":[],"categories_nodes":[],"categories_segments":[],"categories_sizes":[],"default_left":[0,0,0,0,0,0,0,0,0,0,0,0,0,0,0],"id":48,"left_children":[1,3,5,7,9,11,13,-1,-1,-1,-1,-1,-1,-1,-1],"loss_changes":[5.133603E2,3.9670197E1,1.0193298E1,1.363736E1,6.137688E0,1.7538864E1,1.1037277E1,0E0,0E0,0E0,0E0,0E0,0E0,0E0,0E0],"parents":[2147483647,0,0,1,1,2,2,3,3,4,4,5,5,6,6],"right_children":[2,4,6,8,10,12,14,-1,-1,-1,-1,-1,-1,-1,-1],"split_conditions":[1E0,1E0,1.7786616E0,1.591153E0,1E0,9.9239546E-1,2.0860002E0,-2.1713013E-3,-1.0634899E-3,5.42518E-4,3.7750357E-3,2.408458E-3,8.8031404E-4,3.802491E-3,2.0257486E-3],"split_indices":[67,70,77,77,42,77,77,0,0,0,0,0,0,0,0],"split_type":[0,0,0,0,0,0,0,0,0,0,0,0,0,0,0],"sum_hessian":[4.3889474E2,2.4626208E2,1.9263266E2,2.2922134E2,1.704074E1,1.4298804E2,4.964463E1,1.8053308E2,4.8688263E1,1.4799058E1,2.2416804E0,1.0907089E2,3.3917145E1,2.7828007E1,2.1816622E1],"tree_param":{"num_deleted":"0","num_feature":"78","num_nodes":"15","size_leaf_vector":"1"}},{"base_weights":[-8.894241E-3,2.705008E-1,-1.1950322E0,-1.353935E0,3.531209E-1,-1.3317146E0,-8.116003E-1,-2.8801863E-3,-1.1238711E-3,5.783583E-5,1.4505868E-3,-2.2735242E-3,-3.1823036E-3,5.5276917E-4,-1.6534077E-3],"categories":[],"categories_nodes":[],"categories_segments":[],"categories_sizes":[],"default_left":[0,0,0,0,0,0,0,0,0,0,0,0,0,0,0],"id":49,"left_children":[1,3,5,7,9,11,13,-1,-1,-1,-1,-1,-1,-1,-1],"loss_changes":[1.4271513E2,4.6826393E1,4.1945877E0,2.4463482E0,4.5937527E1,2.2172928E0,1.9954653E0,0E0,0E0,0E0,0E0,0E0,0E0,0E0,0E0],"parents":[2147483647,0,0,1,1,2,2,3,3,4,4,5,5,6,6],"right_children":[2,4,6,8,10,12,14,-1,-1,-1,-1,-1,-1,-1,-1],"split_conditions":[1E0,1E0,1.1045634E0,6.781E3,1E0,8.479434E-1,4.86E2,-2.8801863E-3,-1.1238711E-3,5.783583E-5,1.4505868E-3,-2.2735242E-3,-3.1823036E-3,5.5276917E-4,-1.6534077E-3],"split_indices":[69,55,77,75,13,77,75,0,0,0,0,0,0,0,0],"split_type":[0,0,0,0,0,0,0,0,0,0,0,0,0,0,0],"sum_hessian":[4.3044412E2,3.48445E2,8.19991E1,1.6789972E1,3.3165506E2,6.0268E1,2.1731098E1,1.313992E1,3.650052E0,1.8976938E2,1.4188567E2,4.7823288E1,1.2444713E1,1.4636557E0,2.0267443E1],"tree_param":{"num_deleted":"0","num_feature":"78","num_nodes":"15","size_leaf_vector":"1"}},{"base_weights":[-2.0065643E-3,-1.3268695E0,5.6838028E-2,-1.1636584E0,-3.1313782E-3,1.6766893E-2,3.1541763E-3,-2.7524864E-3,-4.6322442E-4,-2.1802394E-4,9.650319E-4],"categories":[],"categories_nodes":[],"categories_segments":[],"categories_sizes":[],"default_left":[0,0,0,0,0,0,0,0,0,0,0],"id":50,"left_children":[1,3,5,7,-1,9,-1,-1,-1,-1,-1],"loss_changes":[3.3627857E1,8.932266E-1,2.7244432E1,3.7909088E0,0E0,2.7363297E1,0E0,0E0,0E0,0E0,0E0],"parents":[2147483647,0,0,1,1,2,2,3,3,5,5],"right_children":[2,4,6,8,-1,10,-1,-1,-1,-1,-1],"split_conditions":[1E0,1E0,1E0,1E0,-3.1313782E-3,1E0,3.1541763E-3,-2.7524864E-3,-4.6322442E-4,-2.1802394E-4,9.650319E-4],"split_indices":[44,65,37,11,0,65,0,0,0,0,0],"split_type":[0,0,0,0,0,0,0,0,0,0,0],"sum_hessian":[4.3114517E2,1.8243567E1,4.129016E2,1.2886358E1,5.3572073E0,4.0318964E2,9.7119665E0,9.47631E0,3.4100485E0,3.1836496E2,8.48247E1],"tree_param":{"num_deleted":"0","num_feature":"78","num_nodes":"11","size_leaf_vector":"1"}},{"base_weights":[-2.3524178E-2,-1.0048598E0,1.2463746E0,-1.0500764E0,6.770352E-1,4.3618736E-1,1.3910308E0,-1.9857641E-3,2.3500693E-3,2.3682595E-3,-9.8117314E-5,2.8732454E-3,2.0509245E-4,2.8527079E-3,2.238158E-3],"categories":[],"categories_nodes":[],"categories_segments":[],"categories_sizes":[],"default_left":[0,0,0,0,0,0,0,0,0,0,0,0,0,0,0],"id":51,"left_children":[1,3,5,7,9,11,13,-1,-1,-1,-1,-1,-1,-1,-1],"loss_changes":[5.4485864E2,1.8827026E1,2.227597E1,1.25234375E1,2.8702533E0,1.0516272E1,4.2209167E0,0E0,0E0,0E0,0E0,0E0,0E0,0E0,0E0],"parents":[2147483647,0,0,1,1,2,2,3,3,4,4,5,5,6,6],"right_children":[2,4,6,8,10,12,14,-1,-1,-1,-1,-1,-1,-1,-1],"split_conditions":[1E0,1E0,1E0,1E0,1E0,1E0,1E0,-1.9857641E-3,2.3500693E-3,2.3682595E-3,-9.8117314E-5,2.8732454E-3,2.0509245E-4,2.8527079E-3,2.238158E-3],"split_indices":[2,46,56,14,17,17,17,0,0,0,0,0,0,0,0],"split_type":[0,0,0,0,0,0,0,0,0,0,0,0,0,0,0],"sum_hessian":[4.3701657E2,2.4652844E2,1.9048813E2,2.4011081E2,6.4176292E0,2.8919256E1,1.6156888E2,2.3788368E2,2.2271307E0,3.4764628E0,2.9411664E0,6.446961E0,2.2472296E1,8.840706E1,7.316182E1],"tree_param":{"num_deleted":"0","num_feature":"78","num_nodes":"15","size_leaf_vector":"1"}},{"base_weights":[-7.953117E-4,-8.138657E-1,2.9273555E-1,-8.404269E-1,1.2130743E-3,1.9842078E-1,1.6865771E0,-2.0919908E-3,-1.3281965E-3,6.5354584E-4,-3.14685E-4,3.6758604E-3,1.8684313E-3],"categories":[],"categories_nodes":[],"categories_segments":[],"categories_sizes":[],"default_left":[0,0,0,0,0,0,0,0,0,0,0,0,0],"id":52,"left_children":[1,3,5,7,-1,9,11,-1,-1,-1,-1,-1,-1],"loss_changes":[1.0258502E2,4.5035324E0,4.1484146E1,3.9113922E0,0E0,1.6846054E1,3.8440895E0,0E0,0E0,0E0,0E0,0E0,0E0],"parents":[2147483647,0,0,1,1,2,2,3,3,5,5,6,6],"right_children":[2,4,6,8,-1,10,12,-1,-1,-1,-1,-1,-1],"split_conditions":[1E0,1E0,1E0,1E0,1.2130743E-3,1E0,1E0,-2.0919908E-3,-1.3281965E-3,6.5354584E-4,-3.14685E-4,3.6758604E-3,1.8684313E-3],"split_indices":[56,12,12,35,0,24,24,0,0,0,0,0,0],"split_type":[0,0,0,0,0,0,0,0,0,0,0,0,0],"sum_hessian":[4.2963544E2,1.13915665E2,3.157198E2,1.1193445E2,1.9812176E0,2.958174E2,1.9902348E1,3.319144E1,7.8743004E1,2.0841008E2,8.740735E1,1.3683832E1,6.2185154E0],"tree_param":{"num_deleted":"0","num_feature":"78","num_nodes":"13","size_leaf_vector":"1"}},{"base_weights":[1.6281253E-2,-6.529407E-1,4.153728E-1,-4.837627E-1,-1.1686559E0,-6.0609025E-1,6.5665394E-1,-2.3968464E-3,-6.494154E-4,-2.5077942E-3,-1.6415151E-3,-1.2495689E-3,3.7489063E-3,1.2957625E-3,-9.960656E-4],"categories":[],"categories_nodes":[],"categories_segments":[],"categories_sizes":[],"default_left":[0,0,0,0,0,0,0,0,0,0,0,0,0,0,0],"id":53,"left_children":[1,3,5,7,9,11,13,-1,-1,-1,-1,-1,-1,-1,-1],"loss_changes":[1.15277245E2,1.4011421E1,6.6676636E1,1.3069153E1,1.9621048E0,9.479084E0,1.1289383E1,0E0,0E0,0E0,0E0,0E0,0E0,0E0,0E0],"parents":[2147483647,0,0,1,1,2,2,3,3,4,4,5,5,6,6],"right_children":[2,4,6,8,10,12,14,-1,-1,-1,-1,-1,-1,-1,-1],"split_conditions":[1E0,1E0,1E0,1E0,1E0,1E0,1E0,-2.3968464E-3,-6.494154E-4,-2.5077942E-3,-1.6415151E-3,-1.2495689E-3,3.7489063E-3,1.2957625E-3,-9.960656E-4],"split_indices":[22,10,56,55,38,23,1,0,0,0,0,0,0,0,0],"split_type":[0,0,0,0,0,0,0,0,0,0,0,0,0,0,0],"sum_hessian":[4.314178E2,1.6114165E2,2.7027612E2,1.2148338E2,3.9658268E1,5.1614613E1,2.1866153E2,1.700983E1,1.0447356E2,2.369834E1,1.5959929E1,5.0373802E1,1.2408081E0,2.110939E2,7.5676312E0],"tree_param":{"num_deleted":"0","num_feature":"78","num_nodes":"15","size_leaf_vector":"1"}},{"base_weights":[2.9288681E-2,-9.380809E-1,1.2242321E0,-1.0367416E0,1.6133596E0,1.2984382E0,1.9719267E-1,-2.0571554E-3,-5.9584813E-4,3.8976432E-3,2.3069382E-3,2.1811596E-3,3.0906834E-3,5.0660264E-4,-4.5174154E-4],"categories":[],"categories_nodes":[],"categories_segments":[],"categories_sizes":[],"default_left":[0,0,0,0,0,0,0,0,0,0,0,0,0,0,0],"id":54,"left_children":[1,3,5,7,9,11,13,-1,-1,-1,-1,-1,-1,-1,-1],"loss_changes":[5.1942017E2,6.267598E1,1.5295013E1,1.2637512E1,1.4147701E0,8.181152E0,4.6701258E-1,0E0,0E0,0E0,0E0,0E0,0E0,0E0,0E0],"parents":[2147483647,0,0,1,1,2,2,3,3,4,4,5,5,6,6],"right_children":[2,4,6,8,10,12,14,-1,-1,-1,-1,-1,-1,-1,-1],"split_conditions":[1E0,1E0,1E0,1E0,1E0,1E0,1E0,-2.0571554E-3,-5.9584813E-4,3.8976432E-3,2.3069382E-3,2.1811596E-3,3.0906834E-3,5.0660264E-4,-4.5174154E-4],"split_indices":[67,12,63,18,45,65,39,0,0,0,0,0,0,0,0],"split_type":[0,0,0,0,0,0,0,0,0,0,0,0,0,0,0],"sum_hessian":[4.4914478E2,2.4821951E2,2.0092526E2,2.3903569E2,9.183816E0,1.8736151E2,1.3563752E1,2.1653247E2,2.2503227E1,3.7281144E0,5.455702E0,1.416656E2,4.5695908E1,1.1594414E1,1.9693384E0],"tree_param":{"num_deleted":"0","num_feature":"78","num_nodes":"15","size_leaf_vector":"1"}},{"base_weights":[-6.433845E-3,-1.0172237E0,1.2718036E0,-1.0517014E0,1.5547817E0,1.1811862E-1,1.9418622E0,-2.1972444E-3,-1.0701974E-3,3.8191383E-3,2.13674E-3,-5.987827E-5,1.5496251E-3,3.7737284E-3,3.4455531E-3],"categories":[],"categories_nodes":[],"categories_segments":[],"categories_sizes":[],"default_left":[0,0,0,0,0,0,0,0,0,0,0,0,0,0,0],"id":55,"left_children":[1,3,5,7,9,11,13,-1,-1,-1,-1,-1,-1,-1,-1],"loss_changes":[5.7308765E2,2.2127869E1,1.5138864E2,1.554657E1,4.3698883E-1,7.7953615E0,5.8688354E-1,0E0,0E0,0E0,0E0,0E0,0E0,0E0,0E0],"parents":[2147483647,0,0,1,1,2,2,3,3,4,4,5,5,6,6],"right_children":[2,4,6,8,10,12,14,-1,-1,-1,-1,-1,-1,-1,-1],"split_conditions":[1E0,1E0,1E0,1.4296736E0,1.8502165E-1,1.9171425E0,1E0,-2.1972444E-3,-1.0701974E-3,3.8191383E-3,2.13674E-3,-5.987827E-5,1.5496251E-3,3.7737284E-3,3.4455531E-3],"split_indices":[2,20,22,77,77,77,45,0,0,0,0,0,0,0,0],"split_type":[0,0,0,0,0,0,0,0,0,0,0,0,0,0,0],"sum_hessian":[4.4335605E2,2.4759006E2,1.9576599E2,2.4437334E2,3.2167108E0,7.196928E1,1.23796715E2,1.9012576E2,5.424758E1,1.2367439E0,1.9799669E0,5.958985E1,1.2379425E1,5.5664303E1,6.8132416E1],"tree_param":{"num_deleted":"0","num_feature":"78","num_nodes":"15","size_leaf_vector":"1"}},{"base_weights":[-1.3884386E-3,-7.960814E-1,2.9428837E-1,-9.573927E-1,-3.5217527E-1,7.650264E-2,9.948865E-1,-1.4178227E-3,-2.9064948E-3,-1.1075808E-3,8.56515E-4,5.036849E-4,-9.3016366E-4,3.4621307E-3,3.2428803E-4],"categories":[],"categories_nodes":[],"categories_segments":[],"categories_sizes":[],"default_left":[0,0,0,0,0,0,0,0,0,0,0,0,0,0,0],"id":56,"left_children":[1,3,5,7,9,11,13,-1,-1,-1,-1,-1,-1,-1,-1],"loss_changes":[9.998937E1,8.229256E0,4.7314228E1,9.808052E0,6.2213154E0,2.6795898E1,5.269668E1,0E0,0E0,0E0,0E0,0E0,0E0,0E0,0E0],"parents":[2147483647,0,0,1,1,2,2,3,3,4,4,5,5,6,6],"right_children":[2,4,6,8,10,12,14,-1,-1,-1,-1,-1,-1,-1,-1],"split_conditions":[1E0,1.2214121E0,1.7786616E0,6.7764264E-1,1E0,9.9239546E-1,2.0178115E0,-1.4178227E-3,-2.9064948E-3,-1.1075808E-3,8.56515E-4,5.036849E-4,-9.3016366E-4,3.4621307E-3,3.2428803E-4],"split_indices":[56,77,77,77,57,77,77,0,0,0,0,0,0,0,0],"split_type":[0,0,0,0,0,0,0,0,0,0,0,0,0,0,0],"sum_hessian":[4.2533713E2,1.1529326E2,3.1004388E2,8.44788E1,3.0814463E1,2.3660463E2,7.343925E1,6.4497536E1,1.9981262E1,2.3690102E1,7.1243615E0,1.7690709E2,5.9697533E1,3.54681E1,3.7971146E1],"tree_param":{"num_deleted":"0","num_feature":"78","num_nodes":"15","size_leaf_vector":"1"}},{"base_weights":[-4.1993673E-5,-1.0275173E0,1.2993938E0,-1.1777108E0,-4.3791488E-1,1.3555924E0,3.3088878E-1,-2.2528672E-3,2.6658631E-3,3.5856097E-4,-1.5387407E-3,2.3145848E-3,3.0021798E-3,1.9350295E-3,-3.033604E-4],"categories":[],"categories_nodes":[],"categories_segments":[],"categories_sizes":[],"default_left":[0,0,0,0,0,0,0,0,0,0,0,0,0,0,0],"id":57,"left_children":[1,3,5,7,9,11,13,-1,-1,-1,-1,-1,-1,-1,-1],"loss_changes":[5.6913696E2,2.1028687E1,1.0200134E1,1.9453888E1,1.205065E1,4.7914124E0,3.7102902E0,0E0,0E0,0E0,0E0,0E0,0E0,0E0,0E0],"parents":[2147483647,0,0,1,1,2,2,3,3,4,4,5,5,6,6],"right_children":[2,4,6,8,10,12,14,-1,-1,-1,-1,-1,-1,-1,-1],"split_conditions":[1E0,1.591153E0,1E0,1E0,2.0178115E0,1.7525389E0,-1.349463E-1,-2.2528672E-3,2.6658631E-3,3.5856097E-4,-1.5387407E-3,2.3145848E-3,3.0021798E-3,1.9350295E-3,-3.033604E-4],"split_indices":[2,77,63,12,77,77,77,0,0,0,0,0,0,0,0],"split_type":[0,0,0,0,0,0,0,0,0,0,0,0,0,0,0],"sum_hessian":[4.2607568E2,2.3794858E2,1.881271E2,1.8956075E2,4.8387833E1,1.7777173E2,1.0355385E1,1.8684174E2,2.7190075E0,1.858058E1,2.9807251E1,1.2756484E2,5.0206882E1,4.192682E0,6.1627026E0],"tree_param":{"num_deleted":"0","num_feature":"78","num_nodes":"15","size_leaf_vector":"1"}},{"base_weights":[-2.2413902E-2,-1.014284E0,1.281347E0,-1.0424683E0,2.6684399E-3,1.0539293E-1,1.9050037E0,-1.9966383E-3,1.5618596E-3,9.3565635E-5,1.7076225E-3,3.7321215E-3,3.343949E-3],"categories":[],"categories_nodes":[],"categories_segments":[],"categories_sizes":[],"default_left":[0,0,0,0,0,0,0,0,0,0,0,0,0],"id":58,"left_children":[1,3,5,7,-1,9,11,-1,-1,-1,-1,-1,-1],"loss_changes":[5.575408E2,1.70943E1,1.3659988E2,1.6400543E1,0E0,2.8929968E0,9.6939087E-1,0E0,0E0,0E0,0E0,0E0,0E0],"parents":[2147483647,0,0,1,1,2,2,3,3,5,5,6,6],"right_children":[2,4,6,8,-1,10,12,-1,-1,-1,-1,-1,-1],"split_conditions":[1E0,1E0,1E0,1E0,2.6684399E-3,1E0,1E0,-1.9966383E-3,1.5618596E-3,9.3565635E-5,1.7076225E-3,3.7321215E-3,3.343949E-3],"split_indices":[2,20,22,7,0,66,13,0,0,0,0,0,0],"split_type":[0,0,0,0,0,0,0,0,0,0,0,0,0],"sum_hessian":[4.3094498E2,2.447598E2,1.8618518E2,2.4203891E2,2.7208827E0,6.456314E1,1.2162204E2,2.375822E2,4.4567084E0,6.0598328E1,3.9648113E0,5.668519E1,6.493685E1],"tree_param":{"num_deleted":"0","num_feature":"78","num_nodes":"13","size_leaf_vector":"1"}},{"base_weights":[-2.2113917E-2,-1.0903529E0,1.3032651E0,-1.144447E0,6.1187744E-1,2.2074573E-1,1.9005926E0,-2.1766892E-3,2.6593925E-3,2.6355402E-3,-8.811027E-4,3.2925548E-4,3.7779924E-3,3.7639947E-3,3.297491E-3],"categories":[],"categories_nodes":[],"categories_segments":[],"categories_sizes":[],"default_left":[0,0,0,0,0,0,0,0,0,0,0,0,0,0,0],"id":59,"left_children":[1,3,5,7,9,11,13,-1,-1,-1,-1,-1,-1,-1,-1],"loss_changes":[6.1780914E2,2.231836E1,1.2588223E2,1.8883698E1,6.692129E0,5.3834195E0,1.6243286E0,0E0,0E0,0E0,0E0,0E0,0E0,0E0,0E0],"parents":[2147483647,0,0,1,1,2,2,3,3,4,4,5,5,6,6],"right_children":[2,4,6,8,10,12,14,-1,-1,-1,-1,-1,-1,-1,-1],"split_conditions":[1E0,1E0,1E0,1E0,1E0,1E0,1E0,-2.1766892E-3,2.6593925E-3,2.6355402E-3,-8.811027E-4,3.2925548E-4,3.7779924E-3,3.7639947E-3,3.297491E-3],"split_indices":[2,46,22,20,17,20,45,0,0,0,0,0,0,0,0],"split_type":[0,0,0,0,0,0,0,0,0,0,0,0,0,0,0],"sum_hessian":[4.3616046E2,2.4151784E2,1.9464264E2,2.3411095E2,7.40689E0,6.92606E1,1.2538204E2,2.3138882E2,2.7221215E0,4.224737E0,3.1821527E0,6.7770584E1,1.4900101E0,5.8941254E1,6.644079E1],"tree_param":{"num_deleted":"0","num_feature":"78","num_nodes":"15","size_leaf_vector":"1"}},{"base_weights":[4.2721886E-2,-9.585177E-1,1.2796679E0,-1.0589185E0,-5.196679E-1,1.3249271E0,5.293773E-1,-1.742968E-3,-2.5074207E-3,7.233395E-4,-1.8132858E-3,2.2593436E-3,3.0333893E-3,1.5659919E-3,-1.1072448E-3],"categories":[],"categories_nodes":[],"categories_segments":[],"categories_sizes":[],"default_left":[0,0,0,0,0,0,0,0,0,0,0,0,0,0,0],"id":60,"left_children":[1,3,5,7,9,11,13,-1,-1,-1,-1,-1,-1,-1,-1],"loss_changes":[5.516459E2,1.0791351E1,6.696106E0,6.828171E0,1.9291164E1,5.968994E0,4.1512976E0,0E0,0E0,0E0,0E0,0E0,0E0,0E0,0E0],"parents":[2147483647,0,0,1,1,2,2,3,3,4,4,5,5,6,6],"right_children":[2,4,6,8,10,12,14,-1,-1,-1,-1,-1,-1,-1,-1],"split_conditions":[1E0,1.703201E0,1E0,9.497106E-1,2.0178115E0,1.9416692E0,6.379E3,-1.742968E-3,-2.5074207E-3,7.233395E-4,-1.8132858E-3,2.2593436E-3,3.0333893E-3,1.5659919E-3,-1.1072448E-3],"split_indices":[2,77,3,77,77,77,75,0,0,0,0,0,0,0,0],"split_type":[0,0,0,0,0,0,0,0,0,0,0,0,0,0,0],"sum_hessian":[4.45223E2,2.4606746E2,1.9915552E2,2.0013818E2,4.5929276E1,1.8775323E2,1.1402292E1,1.4336604E2,5.6772144E1,1.5412491E1,3.0516785E1,1.4100859E2,4.6744648E1,8.923743E0,2.4785492E0],"tree_param":{"num_deleted":"0","num_feature":"78","num_nodes":"15","size_leaf_vector":"1"}},{"base_weights":[1.1298016E-2,-3.310631E-2,1.7212237E0,-6.887057E-2,1.6632067E0,3.5352963E-3,1.4396956E0,-4.692634E-5,-2.4976078E-3,1.7926975E-3,3.371171E-3,3.2262364E-3,1.3265992E-3],"categories":[],"categories_nodes":[],"categories_segments":[],"categories_sizes":[],"default_left":[0,0,0,0,0,0,0,0,0,0,0,0,0],"id":61,"left_children":[1,3,5,7,9,-1,11,-1,-1,-1,-1,-1,-1],"loss_changes":[3.32192E1,2.5883644E1,3.1075668E-1,2.3270184E1,7.866173E-1,0E0,9.337845E-1,0E0,0E0,0E0,0E0,0E0,0E0],"parents":[2147483647,0,0,1,1,2,2,3,3,4,4,6,6],"right_children":[2,4,6,8,10,-1,12,-1,-1,-1,-1,-1,-1],"split_conditions":[1E0,1E0,1E0,1E0,1.035E3,3.5352963E-3,4.525E3,-4.692634E-5,-2.4976078E-3,1.7926975E-3,3.371171E-3,3.2262364E-3,1.3265992E-3],"split_indices":[37,31,21,39,75,0,75,0,0,0,0,0,0],"split_type":[0,0,0,0,0,0,0,0,0,0,0,0,0],"sum_hessian":[4.3733365E2,4.2635977E2,1.0973889E1,4.1765018E2,8.709597E0,6.2354665E0,4.738423E0,4.0401077E2,1.3639394E1,1.7385507E0,6.971046E0,3.241915E0,1.4965079E0],"tree_param":{"num_deleted":"0","num_feature":"78","num_nodes":"13","size_leaf_vector":"1"}},{"base_weights":[-8.49848E-3,-6.769554E-1,4.0763935E-1,-6.0681623E-1,-1.3299856E0,2.9829428E-1,1.7633972E0,-2.2545329E-3,-9.6703373E-4,-2.2942298E-3,-3.0604256E-3,7.562795E-4,-1.7178082E-3,3.6089944E-3,2.414878E-3],"categories":[],"categories_nodes":[],"categories_segments":[],"categories_sizes":[],"default_left":[0,0,0,0,0,0,0,0,0,0,0,0,0,0,0],"id":62,"left_children":[1,3,5,7,9,11,13,-1,-1,-1,-1,-1,-1,-1,-1],"loss_changes":[1.2122031E2,7.577507E0,3.9763077E1,7.747257E0,2.6944733E-1,3.3598495E1,1.451828E0,0E0,0E0,0E0,0E0,0E0,0E0,0E0,0E0],"parents":[2147483647,0,0,1,1,2,2,3,3,4,4,5,5,6,6],"right_children":[2,4,6,8,10,12,14,-1,-1,-1,-1,-1,-1,-1,-1],"split_conditions":[1E0,1E0,1E0,1E0,1E0,1E0,1E0,-2.2545329E-3,-9.6703373E-4,-2.2942298E-3,-3.0604256E-3,7.562795E-4,-1.7178082E-3,3.6089944E-3,2.414878E-3],"split_indices":[22,1,12,43,34,1,43,0,0,0,0,0,0,0,0],"split_type":[0,0,0,0,0,0,0,0,0,0,0,0,0,0,0],"sum_hessian":[4.3557822E2,1.670988E2,2.684794E2,1.5106633E2,1.6032469E1,2.4855486E2,1.9924536E1,1.8223171E1,1.3284317E2,1.2879737E1,3.152733E0,2.2813333E2,2.0421522E1,1.396298E1,5.961556E0],"tree_param":{"num_deleted":"0","num_feature":"78","num_nodes":"15","size_leaf_vector":"1"}},{"base_weights":[1.696084E-2,-1.0324675E0,1.2871878E0,-1.0763271E0,2.343822E-3,1.2348247E0,1.8140818E0,-2.0260694E-3,8.2850613E-4,1.0784286E-3,2.4036802E-3,3.6285897E-3,1.9622906E-3],"categories":[],"categories_nodes":[],"categories_segments":[],"categories_sizes":[],"default_left":[0,0,0,0,0,0,0,0,0,0,0,0,0],"id":63,"left_children":[1,3,5,7,-1,9,11,-1,-1,-1,-1,-1,-1],"loss_changes":[5.8719116E2,2.4449524E1,5.274231E0,6.4523315E0,0E0,7.407776E0,1.7445564E0,0E0,0E0,0E0,0E0,0E0,0E0],"parents":[2147483647,0,0,1,1,2,2,3,3,5,5,6,6],"right_children":[2,4,6,8,-1,10,12,-1,-1,-1,-1,-1,-1],"split_conditions":[1E0,1E0,1E0,1E0,2.343822E-3,1E0,1E0,-2.0260694E-3,8.2850613E-4,1.0784286E-3,2.4036802E-3,3.6285897E-3,1.9622906E-3],"split_indices":[2,7,12,40,0,16,24,0,0,0,0,0,0],"split_type":[0,0,0,0,0,0,0,0,0,0,0,0,0],"sum_hessian":[4.4029977E2,2.4111533E2,1.9918445E2,2.3665201E2,4.463316E0,1.8148286E2,1.7701591E1,2.3395477E2,2.69724E0,1.610803E1,1.6537483E2,1.4708107E1,2.9934833E0],"tree_param":{"num_deleted":"0","num_feature":"78","num_nodes":"13","size_leaf_vector":"1"}},{"base_weights":[2.581394E-2,-7.371315E-1,3.015679E-1,-7.987267E-1,1.0883719E0,2.0313492E-1,1.753272E0,-1.6142441E-3,-5.416078E-6,1.3017748E-3,2.707424E-3,6.410191E-4,-7.432955E-4,3.5737855E-3,2.8039867E-3],"categories":[],"categories_nodes":[],"categories_segments":[],"categories_sizes":[],"default_left":[0,0,0,0,0,0,0,0,0,0,0,0,0,0,0],"id":64,"left_children":[1,3,5,7,9,11,13,-1,-1,-1,-1,-1,-1,-1,-1],"loss_changes":[9.159165E1,1.3082813E1,4.5657837E1,6.495186E0,4.4657898E-1,2.5913702E1,5.645561E-1,0E0,0E0,0E0,0E0,0E0,0E0,0E0,0E0],"parents":[2147483647,0,0,1,1,2,2,3,3,4,4,5,5,6,6],"right_children":[2,4,6,8,10,12,14,-1,-1,-1,-1,-1,-1,-1,-1],"split_conditions":[1E0,1E0,1E0,1E0,1E0,1E0,1E0,-1.6142441E-3,-5.416078E-6,1.3017748E-3,2.707424E-3,6.410191E-4,-7.432955E-4,3.5737855E-3,2.8039867E-3],"split_indices":[56,12,12,30,10,10,10,0,0,0,0,0,0,0,0],"split_type":[0,0,0,0,0,0,0,0,0,0,0,0,0,0,0],"sum_hessian":[4.3514645E2,1.1547829E2,3.1966818E2,1.11763466E2,3.71482E0,2.9947617E2,2.0192024E1,1.02368065E2,9.3954E0,1.9704272E0,1.7443929E0,2.4221576E2,5.7260395E1,1.1208387E1,8.983638E0],"tree_param":{"num_deleted":"0","num_feature":"78","num_nodes":"15","size_leaf_vector":"1"}},{"base_weights":[-4.1666245E-3,-7.002288E-1,4.191308E-1,-6.459871E-1,-1.4900869E0,9.1945034E-1,-1.0951835E0,-1.0361066E-3,-1.9209872E-3,-2.896618E-3,-1.9315047E-3,1.7766276E-3,-1.8126606E-3,-1.8002132E-3,-2.6486306E-3],"categories":[],"categories_nodes":[],"categories_segments":[],"categories_sizes":[],"default_left":[0,0,0,0,0,0,0,0,0,0,0,0,0,0,0],"id":65,"left_children":[1,3,5,7,9,11,13,-1,-1,-1,-1,-1,-1,-1,-1],"loss_changes":[1.2829071E2,6.95813E0,2.0523788E2,5.1629715E0,1.8478012E-1,1.5523773E1,2.6356735E0,0E0,0E0,0E0,0E0,0E0,0E0,0E0,0E0],"parents":[2147483647,0,0,1,1,2,2,3,3,4,4,5,5,6,6],"right_children":[2,4,6,8,10,12,14,-1,-1,-1,-1,-1,-1,-1,-1],"split_conditions":[1E0,1E0,1E0,6.781E3,7.97E3,1E0,6.153E3,-1.0361066E-3,-1.9209872E-3,-2.896618E-3,-1.9315047E-3,1.7766276E-3,-1.8126606E-3,-1.8002132E-3,-2.6486306E-3],"split_indices":[22,25,69,75,75,19,75,0,0,0,0,0,0,0,0],"split_type":[0,0,0,0,0,0,0,0,0,0,0,0,0,0,0],"sum_hessian":[4.3521353E2,1.6455576E2,2.7065778E2,1.5415154E2,1.0404227E1,2.0347142E2,6.718635E1,1.2644866E2,2.7702868E1,8.710842E0,1.6933848E0,1.993282E2,4.1432076E0,4.942388E1,1.7762466E1],"tree_param":{"num_deleted":"0","num_feature":"78","num_nodes":"15","size_leaf_vector":"1"}},{"base_weights":[2.3948818E-2,-9.709088E-1,1.2415843E0,-1.0222807E0,1.6928737E0,1.0273619E0,1.5152638E0,-1.9239767E-3,5.2691257E-4,3.90714E-3,2.2320969E-3,2.226632E-3,9.039942E-4,8.839872E-4,2.8742629E-3],"categories":[],"categories_nodes":[],"categories_segments":[],"categories_sizes":[],"default_left":[0,0,0,0,0,0,0,0,0,0,0,0,0,0,0],"id":66,"left_children":[1,3,5,7,9,11,13,-1,-1,-1,-1,-1,-1,-1,-1],"loss_changes":[5.2693365E2,3.293274E1,1.13116455E1,5.1463165E0,6.741667E-1,1.0324524E1,3.2014008E0,0E0,0E0,0E0,0E0,0E0,0E0,0E0,0E0],"parents":[2147483647,0,0,1,1,2,2,3,3,4,4,5,5,6,6],"right_children":[2,4,6,8,10,12,14,-1,-1,-1,-1,-1,-1,-1,-1],"split_conditions":[1E0,1E0,1E0,1E0,4.751E3,6.473E3,2.39E2,-1.9239767E-3,5.2691257E-4,3.90714E-3,2.2320969E-3,2.226632E-3,9.039942E-4,8.839872E-4,2.8742629E-3],"split_indices":[2,12,11,40,75,75,75,0,0,0,0,0,0,0,0],"split_type":[0,0,0,0,0,0,0,0,0,0,0,0,0,0,0],"sum_hessian":[4.3478894E2,2.3929526E2,1.9549368E2,2.3482816E2,4.4671125E0,1.0992519E2,8.556849E1,2.3189119E2,2.9369602E0,2.228435E0,2.2386775E0,8.2895386E1,2.7029814E1,2.9807818E0,8.258771E1],"tree_param":{"num_deleted":"0","num_feature":"78","num_nodes":"15","size_leaf_vector":"1"}},{"base_weights":[1.6320981E-2,-9.949983E-1,1.2506578E0,-1.0492071E0,1.3863882E0,8.6785756E-2,1.9050719E0,-1.9922466E-3,2.5128638E-3,3.3460676E-3,1.4352127E-3,4.522937E-4,-9.863293E-4,3.5988693E-3,2.088767E-3],"categories":[],"categories_nodes":[],"categories_segments":[],"categories_sizes":[],"default_left":[0,0,0,0,0,0,0,0,0,0,0,0,0,0,0],"id":67,"left_children":[1,3,5,7,9,11,13,-1,-1,-1,-1,-1,-1,-1,-1],"loss_changes":[5.3746625E2,3.0696167E1,1.476666E2,1.4962875E1,1.2251244E0,6.829159E0,3.4765015E0,0E0,0E0,0E0,0E0,0E0,0E0,0E0,0E0],"parents":[2147483647,0,0,1,1,2,2,3,3,4,4,5,5,6,6],"right_children":[2,4,6,8,10,12,14,-1,-1,-1,-1,-1,-1,-1,-1],"split_conditions":[1E0,1E0,1E0,1E0,5.948E3,6.731E3,1E0,-1.9922466E-3,2.5128638E-3,3.3460676E-3,1.4352127E-3,4.522937E-4,-9.863293E-4,3.5988693E-3,2.088767E-3],"split_indices":[2,12,22,14,75,75,3,0,0,0,0,0,0,0,0],"split_type":[0,0,0,0,0,0,0,0,0,0,0,0,0,0,0],"sum_hessian":[4.3035593E2,2.3655807E2,1.9379785E2,2.3134772E2,5.2103524E0,6.978999E1,1.2400786E2,2.2887225E2,2.4754672E0,2.9712517E0,2.2391007E0,5.5693287E1,1.40967045E1,1.18037834E2,5.9700246E0],"tree_param":{"num_deleted":"0","num_feature":"78","num_nodes":"15","size_leaf_vector":"1"}},{"base_weights":[-2.3700897E-2,-7.511051E-1,2.511257E-1,1.8106154E-3,-7.77686E-1,1.5151063E-1,8.271433E-1,-1.5012559E-3,1.8733858E-4,5.883095E-4,-6.738502E-4,1.2054903E-3,2.9002563E-3],"categories":[],"categories_nodes":[],"categories_segments":[],"categories_sizes":[],"default_left":[0,0,0,0,0,0,0,0,0,0,0,0,0],"id":68,"left_children":[1,3,5,-1,7,9,11,-1,-1,-1,-1,-1,-1],"loss_changes":[8.608284E1,5.502205E0,1.7920755E1,0E0,3.381668E0,2.2842773E1,5.894535E0,0E0,0E0,0E0,0E0,0E0,0E0],"parents":[2147483647,0,0,1,1,2,2,4,4,5,5,6,6],"right_children":[2,4,6,-1,8,10,12,-1,-1,-1,-1,-1,-1],"split_conditions":[1E0,1E0,1E0,1.8106154E-3,1E0,1E0,1E0,-1.5012559E-3,1.8733858E-4,5.883095E-4,-6.738502E-4,1.2054903E-3,2.9002563E-3],"split_indices":[56,51,21,0,3,24,53,0,0,0,0,0,0],"split_type":[0,0,0,0,0,0,0,0,0,0,0,0,0],"sum_hessian":[4.3041357E2,1.1797829E2,3.124353E2,1.7322676E0,1.1624602E2,2.6647763E2,4.595768E1,1.1204749E2,4.198521E0,2.0153522E2,6.49424E1,3.7262325E1,8.695357E0],"tree_param":{"num_deleted":"0","num_feature":"78","num_nodes":"13","size_leaf_vector":"1"}},{"base_weights":[2.1841314E-2,-7.900938E-1,3.1299964E-1,-8.210115E-1,3.6098748E-3,1.4169435E-1,9.318596E-1,-1.8453859E-3,-6.9133256E-4,1.3599606E-4,3.14461E-3,3.8464318E-3,7.5954536E-6],"categories":[],"categories_nodes":[],"categories_segments":[],"categories_sizes":[],"default_left":[0,0,0,0,0,0,0,0,0,0,0,0,0],"id":69,"left_children":[1,3,5,7,-1,9,11,-1,-1,-1,-1,-1,-1],"loss_changes":[1.0570807E2,1.0156448E1,3.4878548E1,9.137955E0,0E0,2.7384111E1,7.579133E1,0E0,0E0,0E0,0E0,0E0,0E0],"parents":[2147483647,0,0,1,1,2,2,3,3,5,5,6,6],"right_children":[2,4,6,8,-1,10,12,-1,-1,-1,-1,-1,-1],"split_conditions":[1E0,1E0,1.9416692E0,1.2579032E0,3.6098748E-3,1E0,2.0178115E0,-1.8453859E-3,-6.9133256E-4,1.3599606E-4,3.14461E-3,3.8464318E-3,7.5954536E-6],"split_indices":[56,37,77,77,0,5,77,0,0,0,0,0,0],"split_type":[0,0,0,0,0,0,0,0,0,0,0,0,0],"sum_hessian":[4.469499E2,1.179259E2,3.29024E2,1.1667907E2,1.2468328E0,2.5778888E2,7.123509E1,8.3732895E1,3.2946175E1,2.4705873E2,1.07301655E1,3.1825811E1,3.9409283E1],"tree_param":{"num_deleted":"0","num_feature":"78","num_nodes":"13","size_leaf_vector":"1"}},{"base_weights":[3.4520727E-2,-9.0285057E-1,1.2507579E0,-1.0289569E0,1.7437073E0,1.3128948E0,4.731595E-1,-1.9888047E-3,3.471814E-3,3.8328164E-3,2.2002987E-3,2.9145116E-3,2.104459E-3,-1.2298911E-3,2.5613091E-3],"categories":[],"categories_nodes":[],"categories_segments":[],"categories_sizes":[],"default_left":[0,0,0,0,0,0,0,0,0,0,0,0,0,0,0],"id":70,"left_children":[1,3,5,7,9,11,13,-1,-1,-1,-1,-1,-1,-1,-1],"loss_changes":[4.890621E2,8.103453E1,8.959412E0,3.0424408E1,1.7564545E0,7.780945E0,1.4551651E1,0E0,0E0,0E0,0E0,0E0,0E0,0E0,0E0],"parents":[2147483647,0,0,1,1,2,2,3,3,4,4,5,5,6,6],"right_children":[2,4,6,8,10,12,14,-1,-1,-1,-1,-1,-1,-1,-1],"split_conditions":[1E0,1E0,1E0,1E0,1E0,3.245E3,4.8E3,-1.9888047E-3,3.471814E-3,3.8328164E-3,2.2002987E-3,2.9145116E-3,2.104459E-3,-1.2298911E-3,2.5613091E-3],"split_indices":[67,12,47,20,21,75,75,0,0,0,0,0,0,0,0],"split_type":[0,0,0,0,0,0,0,0,0,0,0,0,0,0,0],"sum_hessian":[4.28778E2,2.4216429E2,1.8661371E2,2.3120853E2,1.09557705E1,1.7274132E2,1.3872384E1,2.2774234E2,3.4661849E0,6.7324066E0,4.223364E0,6.937563E1,1.0336569E2,6.1779127E0,7.6944714E0],"tree_param":{"num_deleted":"0","num_feature":"78","num_nodes":"15","size_leaf_vector":"1"}},{"base_weights":[-2.9130268E-3,-1.0343653E0,1.2631283E0,-1.0893191E0,-7.6527315E-1,1.2818382E0,-2.0672553E-3,-2.0344714E-3,-2.18599E-5,-1.2378781E-3,-3.0705645E-3,2.1370996E-3,3.0790274E-3],"categories":[],"categories_nodes":[],"categories_segments":[],"categories_sizes":[],"default_left":[0,0,0,0,0,0,0,0,0,0,0,0,0],"id":71,"left_children":[1,3,5,7,9,11,-1,-1,-1,-1,-1,-1,-1],"loss_changes":[5.7288995E2,3.4915466E0,8.911407E0,2.0070648E0,3.4621868E0,9.32193E0,0E0,0E0,0E0,0E0,0E0,0E0,0E0],"parents":[2147483647,0,0,1,1,2,2,3,3,4,4,5,5],"right_children":[2,4,6,8,10,12,-1,-1,-1,-1,-1,-1,-1],"split_conditions":[1E0,1E0,2E0,1E0,1E0,1E0,-2.0672553E-3,-2.0344714E-3,-2.18599E-5,-1.2378781E-3,-3.0705645E-3,2.1370996E-3,3.0790274E-3],"split_indices":[2,65,76,61,73,65,0,0,0,0,0,0,0],"split_type":[0,0,0,0,0,0,0,0,0,0,0,0,0],"sum_hessian":[4.385066E2,2.4165057E2,1.9685602E2,2.0041675E2,4.1233814E1,1.9536597E2,1.4900593E0,1.9870067E2,1.7160833E0,3.7357613E1,3.876202E0,1.4657881E2,4.8787148E1],"tree_param":{"num_deleted":"0","num_feature":"78","num_nodes":"13","size_leaf_vector":"1"}},{"base_weights":[2.5932081E-2,-2.6202905E-3,9.017948E-2,1.914484E-1,-9.819116E-1,3.0664708E-3,2.3005505E-4,-1.8868409E-3,-8.2928076E-4],"categories":[],"categories_nodes":[],"categories_segments":[],"categories_sizes":[],"default_left":[0,0,0,0,0,0,0,0,0],"id":72,"left_children":[1,-1,3,5,7,-1,-1,-1,-1],"loss_changes":[4.057058E1,0E0,4.556461E1,3.771918E1,6.698532E-1,0E0,0E0,0E0,0E0],"parents":[2147483647,0,0,2,2,3,3,4,4],"right_children":[2,-1,4,6,8,-1,-1,-1,-1],"split_conditions":[1E0,-2.6202905E-3,1E0,1E0,1E0,3.0664708E-3,2.3005505E-4,-1.8868409E-3,-8.2928076E-4],"split_indices":[55,0,1,43,38,0,0,0,0],"split_type":[0,0,0,0,0,0,0,0,0],"sum_hessian":[4.3801538E2,1.860714E1,4.1940826E2,3.8328552E2,3.6122726E1,1.6717163E1,3.6656836E2,3.3698578E1,2.424147E0],"tree_param":{"num_deleted":"0","num_feature":"78","num_nodes":"9","size_leaf_vector":"1"}},{"base_weights":[1.7084787E-2,-7.272722E-1,2.8789362E-1,-8.916621E-1,-2.3140138E-1,1.21281564E-1,8.381811E-1,-1.2789727E-3,-2.6982115E-3,-1.2740128E-4,-2.2471305E-3,5.8818934E-4,-9.2872983E-4,3.1707196E-3,1.6954346E-4],"categories":[],"categories_nodes":[],"categories_segments":[],"categories_sizes":[],"default_left":[0,0,0,0,0,0,0,0,0,0,0,0,0,0,0],"id":73,"left_children":[1,3,5,7,9,11,13,-1,-1,-1,-1,-1,-1,-1,-1],"loss_changes":[9.027962E1,9.718433E0,3.00977E1,1.0092888E1,4.7632837E0,3.0852957E1,4.9775784E1,0E0,0E0,0E0,0E0,0E0,0E0,0E0,0E0],"parents":[2147483647,0,0,1,1,2,2,3,3,4,4,5,5,6,6],"right_children":[2,4,6,8,10,12,14,-1,-1,-1,-1,-1,-1,-1,-1],"split_conditions":[1E0,1.2770761E0,1.7786616E0,6.7764264E-1,1E0,9.9239546E-1,2.0178115E0,-1.2789727E-3,-2.6982115E-3,-1.2740128E-4,-2.2471305E-3,5.8818934E-4,-9.2872983E-4,3.1707196E-3,1.6954346E-4],"split_indices":[56,77,77,77,65,77,77,0,0,0,0,0,0,0,0],"split_type":[0,0,0,0,0,0,0,0,0,0,0,0,0,0,0],"sum_hessian":[4.4765955E2,1.1937411E2,3.2828546E2,8.959273E1,2.978138E1,2.5208348E2,7.620197E1,6.625725E1,2.333548E1,2.5642567E1,4.138813E0,1.9169827E2,6.0385216E1,3.504672E1,4.115525E1],"tree_param":{"num_deleted":"0","num_feature":"78","num_nodes":"15","size_leaf_vector":"1"}},{"base_weights":[3.6034726E-2,-9.0788865E-1,1.1443737E0,-9.810232E-1,1.6130068E0,4.817872E-2,1.8040211E0,-1.8857787E-3,2.868096E-3,3.684037E-3,2.3014864E-3,9.107494E-6,3.752633E-3,3.4554184E-3,2.898362E-3],"categories":[],"categories_nodes":[],"categories_segments":[],"categories_sizes":[],"default_left":[0,0,0,0,0,0,0,0,0,0,0,0,0,0,0],"id":74,"left_children":[1,3,5,7,9,11,13,-1,-1,-1,-1,-1,-1,-1,-1],"loss_changes":[4.497099E2,4.2958313E1,1.4295425E2,2.1450272E1,6.699848E-1,6.3643703E0,1.5333557E0,0E0,0E0,0E0,0E0,0E0,0E0,0E0,0E0],"parents":[2147483647,0,0,1,1,2,2,3,3,4,4,5,5,6,6],"right_children":[2,4,6,8,10,12,14,-1,-1,-1,-1,-1,-1,-1,-1],"split_conditions":[1E0,1E0,1E0,1E0,1E0,1E0,1E0,-1.8857787E-3,2.868096E-3,3.684037E-3,2.3014864E-3,9.107494E-6,3.752633E-3,3.4554184E-3,2.898362E-3],"split_indices":[67,5,22,20,24,20,10,0,0,0,0,0,0,0,0],"split_type":[0,0,0,0,0,0,0,0,0,0,0,0,0,0,0],"sum_hessian":[4.2965683E2,2.3204901E2,1.9760782E2,2.2556612E2,6.482892E0,7.427904E1,1.2332878E2,2.2234776E2,3.2183623E0,2.9977832E0,3.4851089E0,7.278755E1,1.4914862E0,9.740766E1,2.5921118E1],"tree_param":{"num_deleted":"0","num_feature":"78","num_nodes":"15","size_leaf_vector":"1"}},{"base_weights":[-4.5173965E-2,-9.411086E-1,1.1467848E0,-1.0369607E0,2.1061616E-1,1.0407193E-1,1.81303E0,-1.9907951E-3,2.856086E-3,2.089785E-3,-1.5303208E-3,4.8367836E-4,-1.0411738E-3,2.6743626E-3,3.4423487E-3],"categories":[],"categories_nodes":[],"categories_segments":[],"categories_sizes":[],"default_left":[0,0,0,0,0,0,0,0,0,0,0,0,0,0,0],"id":75,"left_children":[1,3,5,7,9,11,13,-1,-1,-1,-1,-1,-1,-1,-1],"loss_changes":[4.567918E2,2.697931E1,1.2749332E2,2.2302032E1,1.8029743E1,7.5168834E0,1.6250916E0,0E0,0E0,0E0,0E0,0E0,0E0,0E0,0E0],"parents":[2147483647,0,0,1,1,2,2,3,3,4,4,5,5,6,6],"right_children":[2,4,6,8,10,12,14,-1,-1,-1,-1,-1,-1,-1,-1],"split_conditions":[1E0,1E0,1E0,1E0,1E0,6.731E3,1E0,-1.9907951E-3,2.856086E-3,2.089785E-3,-1.5303208E-3,4.8367836E-4,-1.0411738E-3,2.6743626E-3,3.4423487E-3],"split_indices":[67,70,22,20,17,75,16,0,0,0,0,0,0,0,0],"split_type":[0,0,0,0,0,0,0,0,0,0,0,0,0,0,0],"sum_hessian":[4.2753986E2,2.4409052E2,1.8344934E2,2.2534608E2,1.8744432E1,7.156366E1,1.1188569E2,2.221259E2,3.2201722E0,9.938644E0,8.805788E0,5.7958008E1,1.3605651E1,1.2726011E1,9.9159676E1],"tree_param":{"num_deleted":"0","num_feature":"78","num_nodes":"15","size_leaf_vector":"1"}},{"base_weights":[1.613692E-2,-9.244783E-1,1.2198966E0,-1.2513862E0,-7.338424E-1,1.15639225E-1,1.838342E0,-2.509531E-3,-1.9756292E-3,-1.550811E-3,2.871412E-4,5.726173E-4,-1.1602934E-3,3.6880667E-3,3.1674572E-3],"categories":[],"categories_nodes":[],"categories_segments":[],"categories_sizes":[],"default_left":[0,0,0,0,0,0,0,0,0,0,0,0,0,0,0],"id":76,"left_children":[1,3,5,7,9,11,13,-1,-1,-1,-1,-1,-1,-1,-1],"loss_changes":[5.0028366E2,1.536554E1,1.3233554E2,1.6021729E0,1.4462273E1,1.0030845E1,2.0939636E0,0E0,0E0,0E0,0E0,0E0,0E0,0E0,0E0],"parents":[2147483647,0,0,1,1,2,2,3,3,4,4,5,5,6,6],"right_children":[2,4,6,8,10,12,14,-1,-1,-1,-1,-1,-1,-1,-1],"split_conditions":[1E0,1E0,1E0,5.115E3,1E0,6.721E3,1E0,-2.509531E-3,-1.9756292E-3,-1.550811E-3,2.871412E-4,5.726173E-4,-1.1602934E-3,3.6880667E-3,3.1674572E-3],"split_indices":[67,22,22,75,18,75,45,0,0,0,0,0,0,0,0],"split_type":[0,0,0,0,0,0,0,0,0,0,0,0,0,0,0],"sum_hessian":[4.416399E2,2.4793063E2,1.9370927E2,9.111965E1,1.5681097E2,6.958369E1,1.2412558E2,5.792002E1,3.319963E1,1.404484E2,1.6362581E1,5.523585E1,1.4347838E1,5.581484E1,6.8310745E1],"tree_param":{"num_deleted":"0","num_feature":"78","num_nodes":"15","size_leaf_vector":"1"}},{"base_weights":[-2.1600781E-2,-1.0249032E0,1.3012414E0,-1.06691E0,2.3285886E-3,8.026388E-1,1.3861487E0,-2.105653E-3,-8.3094777E-4,2.7626948E-3,1.10678E-3,2.9294796E-3,2.1939713E-3],"categories":[],"categories_nodes":[],"categories_segments":[],"categories_sizes":[],"default_left":[0,0,0,0,0,0,0,0,0,0,0,0,0],"id":77,"left_children":[1,3,5,7,-1,9,11,-1,-1,-1,-1,-1,-1],"loss_changes":[5.83473E2,2.410318E1,7.9161377E0,1.0596191E1,0E0,3.842348E0,6.1956787E0,0E0,0E0,0E0,0E0,0E0,0E0],"parents":[2147483647,0,0,1,1,2,2,3,3,5,5,6,6],"right_children":[2,4,6,8,-1,10,12,-1,-1,-1,-1,-1,-1],"split_conditions":[1E0,1E0,1E0,1E0,2.3285886E-3,1E0,1E0,-2.105653E-3,-8.3094777E-4,2.7626948E-3,1.10678E-3,2.9294796E-3,2.1939713E-3],"split_indices":[2,7,56,18,0,17,38,0,0,0,0,0,0],"split_type":[0,0,0,0,0,0,0,0,0,0,0,0,0],"sum_hessian":[4.3942303E2,2.4990584E2,1.8951718E2,2.454417E2,4.464135E0,2.7728989E1,1.617882E2,2.2035555E2,2.5086163E1,6.2124486E0,2.151654E1,8.169398E1,8.009422E1],"tree_param":{"num_deleted":"0","num_feature":"78","num_nodes":"13","size_leaf_vector":"1"}},{"base_weights":[1.1507187E-2,2.557342E-1,-1.0438803E0,3.395984E-1,-1.2464733E0,-1.1335087E0,-8.591864E-1,7.651149E-4,-1.2116977E-3,-1.4148116E-3,-2.7772319E-3,-1.8841289E-3,-2.5807663E-3,-1.9955034E-3,-1.4104254E-3],"categories":[],"categories_nodes":[],"categories_segments":[],"categories_sizes":[],"default_left":[0,0,0,0,0,0,0,0,0,0,0,0,0,0,0],"id":78,"left_children":[1,3,5,7,9,11,13,-1,-1,-1,-1,-1,-1,-1,-1],"loss_changes":[1.11945175E2,4.4474632E1,1.253685E0,2.4456505E1,2.1664906E0,1.5078659E0,4.948578E-1,0E0,0E0,0E0,0E0,0E0,0E0,0E0,0E0],"parents":[2147483647,0,0,1,1,2,2,3,3,4,4,5,5,6,6],"right_children":[2,4,6,8,10,12,14,-1,-1,-1,-1,-1,-1,-1,-1],"split_conditions":[1E0,1E0,1E0,1E0,1E0,1E0,1E0,7.651149E-4,-1.2116977E-3,-1.4148116E-3,-2.7772319E-3,-1.8841289E-3,-2.5807663E-3,-1.9955034E-3,-1.4104254E-3],"split_indices":[69,73,52,63,58,24,24,0,0,0,0,0,0,0,0],"split_type":[0,0,0,0,0,0,0,0,0,0,0,0,0,0,0],"sum_hessian":[4.3410626E2,3.525894E2,8.151688E1,3.3401938E2,1.8570002E1,5.45373E1,2.6979572E1,3.1105536E2,2.2964022E1,6.5300975E0,1.2039905E1,3.804835E1,1.6488949E1,8.020569E0,1.8959003E1],"tree_param":{"num_deleted":"0","num_feature":"78","num_nodes":"15","size_leaf_vector":"1"}},{"base_weights":[4.7006167E-2,2.8981483E-1,-1.1254863E0,3.9837244E-1,-1.172735E0,-1.2409966E0,-1.0236835E0,5.0873787E-4,1.5304713E-3,-2.1224488E-3,-2.894935E-3,-3.0781718E-3,-2.2158795E-3,-1.8560233E-3,-2.925207E-3],"categories":[],"categories_nodes":[],"categories_segments":[],"categories_sizes":[],"default_left":[0,0,0,0,0,0,0,0,0,0,0,0,0,0,0],"id":79,"left_children":[1,3,5,7,9,11,13,-1,-1,-1,-1,-1,-1,-1,-1],"loss_changes":[1.23322716E2,5.7021458E1,7.468796E-1,1.7664066E1,7.878876E-2,4.4371033E-1,3.191223E-1,0E0,0E0,0E0,0E0,0E0,0E0,0E0,0E0],"parents":[2147483647,0,0,1,1,2,2,3,3,4,4,5,5,6,6],"right_children":[2,4,6,8,10,12,14,-1,-1,-1,-1,-1,-1,-1,-1],"split_conditions":[1E0,1E0,1E0,1E0,2E0,1E0,1E0,5.0873787E-4,1.5304713E-3,-2.1224488E-3,-2.894935E-3,-3.0781718E-3,-2.2158795E-3,-1.8560233E-3,-2.925207E-3],"split_indices":[69,1,17,57,74,11,66,0,0,0,0,0,0,0,0],"split_type":[0,0,0,0,0,0,0,0,0,0,0,0,0,0,0],"sum_hessian":[4.3296588E2,3.5874872E2,7.421714E1,3.340283E2,2.472045E1,3.4243626E1,3.9973515E1,2.5929388E2,7.473438E1,2.3511715E1,1.2087337E0,2.9193876E0,3.1324238E1,3.8759624E1,1.213889E0],"tree_param":{"num_deleted":"0","num_feature":"78","num_nodes":"15","size_leaf_vector":"1"}},{"base_weights":[-2.3505064E-2,-9.758785E-2,1.4891526E0,-3.2378381E-1,4.1261163E-1,1.7591192E0,9.590838E-1,-2.0906406E-4,-2.334407E-3,1.5026139E-3,-3.0458832E-4,7.4093795E-4,3.6295648E-3,-4.200889E-4,2.5060014E-3],"categories":[],"categories_nodes":[],"categories_segments":[],"categories_sizes":[],"default_left":[0,0,0,0,0,0,0,0,0,0,0,0,0,0,0],"id":80,"left_children":[1,3,5,7,9,11,13,-1,-1,-1,-1,-1,-1,-1,-1],"loss_changes":[4.8717236E1,4.7838158E1,2.7358475E0,5.6719494E1,2.9318895E1,3.5595474E0,3.3350873E0,0E0,0E0,0E0,0E0,0E0,0E0,0E0,0E0],"parents":[2147483647,0,0,1,1,2,2,3,3,4,4,5,5,6,6],"right_children":[2,4,6,8,10,12,14,-1,-1,-1,-1,-1,-1,-1,-1],"split_conditions":[1E0,1.2457141E0,1E0,9.9239546E-1,2.0178115E0,1.035E3,1E0,-2.0906406E-4,-2.334407E-3,1.5026139E-3,-3.0458832E-4,7.4093795E-4,3.6295648E-3,-4.200889E-4,2.5060014E-3],"split_indices":[12,77,21,77,77,75,43,0,0,0,0,0,0,0,0],"split_type":[0,0,0,0,0,0,0,0,0,0,0,0,0,0,0],"sum_hessian":[4.345054E2,4.143081E2,2.0197296E1,2.8707187E2,1.2723622E2,1.3228227E1,6.969069E0,2.3441336E2,5.2658516E1,7.521678E1,5.2019447E1,1.7417781E0,1.1486449E1,1.7490394E0,5.2200294E0],"tree_param":{"num_deleted":"0","num_feature":"78","num_nodes":"15","size_leaf_vector":"1"}},{"base_weights":[3.4850564E-2,-6.3142055E-1,4.4285572E-1,-8.44815E-1,-6.3542915E-3,1.6998491E0,3.573575E-1,-1.2529683E-3,-2.5624568E-3,7.4695644E-4,-9.103586E-4,2.8216222E-3,3.75266E-3,3.4877544E-4,1.8455577E-3],"categories":[],"categories_nodes":[],"categories_segments":[],"categories_sizes":[],"default_left":[0,0,0,0,0,0,0,0,0,0,0,0,0,0,0],"id":81,"left_children":[1,3,5,7,9,11,13,-1,-1,-1,-1,-1,-1,-1,-1],"loss_changes":[1.1595357E2,2.1608337E1,2.836974E1,1.0854462E1,8.236896E0,6.590538E-1,2.6756811E1,0E0,0E0,0E0,0E0,0E0,0E0,0E0,0E0],"parents":[2147483647,0,0,1,1,2,2,3,3,4,4,5,5,6,6],"right_children":[2,4,6,8,10,12,14,-1,-1,-1,-1,-1,-1,-1,-1],"split_conditions":[1E0,1.3384784E0,1E0,9.9239546E-1,2.0178115E0,1.0176536E0,1.981418E0,-1.2529683E-3,-2.5624568E-3,7.4695644E-4,-9.103586E-4,2.8216222E-3,3.75266E-3,3.4877544E-4,1.8455577E-3],"split_indices":[22,77,43,77,77,77,77,0,0,0,0,0,0,0,0],"split_type":[0,0,0,0,0,0,0,0,0,0,0,0,0,0,0],"sum_hessian":[4.263447E2,1.6190295E2,2.6444174E2,1.20671234E2,4.1231716E1,1.6721046E1,2.477207E2,9.213759E1,2.8533651E1,2.2364866E1,1.886685E1,1.1229814E1,5.4912333E0,1.9602129E2,5.1699413E1],"tree_param":{"num_deleted":"0","num_feature":"78","num_nodes":"15","size_leaf_vector":"1"}},{"base_weights":[-1.7743876E-2,-1.0019609E-1,1.0065336E0,1.2709452E0,-1.615488E-1,1.2806182E0,7.564826E-1,6.194001E-4,2.981495E-3,-2.2589806E-3,-1.9407706E-4,1.8340779E-3,3.7105058E-3,1.6911761E-3,1.10339046E-4],"categories":[],"categories_nodes":[],"categories_segments":[],"categories_sizes":[],"default_left":[0,0,0,0,0,0,0,0,0,0,0,0,0,0,0],"id":82,"left_children":[1,3,5,7,9,11,13,-1,-1,-1,-1,-1,-1,-1,-1],"loss_changes":[3.72182E1,3.432941E1,2.1532745E0,5.4960403E0,2.3436642E1,3.0580902E0,1.8967791E0,0E0,0E0,0E0,0E0,0E0,0E0,0E0,0E0],"parents":[2147483647,0,0,1,1,2,2,3,3,4,4,5,5,6,6],"right_children":[2,4,6,8,10,12,14,-1,-1,-1,-1,-1,-1,-1,-1],"split_conditions":[1E0,1E0,1E0,1E0,1E0,1E0,1E0,6.194001E-4,2.981495E-3,-2.2589806E-3,-1.9407706E-4,1.8340779E-3,3.7105058E-3,1.6911761E-3,1.10339046E-4],"split_indices":[70,51,17,11,44,58,58,0,0,0,0,0,0,0,0],"split_type":[0,0,0,0,0,0,0,0,0,0,0,0,0,0,0],"sum_hessian":[4.404728E2,4.0774075E2,3.273207E1,1.7378809E1,3.9036194E2,1.5418967E1,1.7313105E1,4.6724453E0,1.2706364E1,1.976205E1,3.7059988E2,1.1171843E1,4.247124E0,1.410863E1,3.204474E0],"tree_param":{"num_deleted":"0","num_feature":"78","num_nodes":"15","size_leaf_vector":"1"}},{"base_weights":[-1.7377084E-2,-9.9842024E-1,1.2016252E0,-1.032312E0,2.369011E-3,1.2189481E0,-1.2452181E-3,-2.0992325E-3,-1.675666E-3,2.2881003E-3,-1.0788734E-3],"categories":[],"categories_nodes":[],"categories_segments":[],"categories_sizes":[],"default_left":[0,0,0,0,0,0,0,0,0,0,0],"id":83,"left_children":[1,3,5,7,-1,9,-1,-1,-1,-1,-1],"loss_changes":[5.1923975E2,1.8703033E1,6.3673706E0,2.9578247E0,0E0,5.8190613E0,0E0,0E0,0E0,0E0,0E0],"parents":[2147483647,0,0,1,1,2,2,3,3,5,5],"right_children":[2,4,6,8,-1,10,-1,-1,-1,-1,-1],"split_conditions":[1E0,1E0,2E0,1E0,2.369011E-3,1E0,-1.2452181E-3,-2.0992325E-3,-1.675666E-3,2.2881003E-3,-1.0788734E-3],"split_indices":[2,12,76,13,0,39,0,0,0,0,0],"split_type":[0,0,0,0,0,0,0,0,0,0,0],"sum_hessian":[4.339851E2,2.4047272E2,1.9351239E2,2.3700084E2,3.4718764E0,1.9177466E2,1.7377236E0,1.3162358E2,1.05377266E2,1.9005214E2,1.7225302E0],"tree_param":{"num_deleted":"0","num_feature":"78","num_nodes":"11","size_leaf_vector":"1"}},{"base_weights":[2.8278096E-2,-9.626269E-1,1.2464076E0,-9.989948E-1,2.3818228E-3,1.5121807E0,9.913072E-1,-2.1263727E-3,-1.5151431E-3,2.8719679E-3,1.138312E-3,-1.9696652E-4,2.0612704E-3],"categories":[],"categories_nodes":[],"categories_segments":[],"categories_sizes":[],"default_left":[0,0,0,0,0,0,0,0,0,0,0,0,0],"id":84,"left_children":[1,3,5,7,-1,9,11,-1,-1,-1,-1,-1,-1],"loss_changes":[5.2177386E2,1.9623444E1,1.29964905E1,6.237915E0,0E0,3.194931E0,1.3275955E1,0E0,0E0,0E0,0E0,0E0,0E0],"parents":[2147483647,0,0,1,1,2,2,3,3,5,5,6,6],"right_children":[2,4,6,8,-1,10,12,-1,-1,-1,-1,-1,-1],"split_conditions":[1E0,1E0,1E0,1E0,2.3818228E-3,1E0,1E0,-2.1263727E-3,-1.5151431E-3,2.8719679E-3,1.138312E-3,-1.9696652E-4,2.0612704E-3],"split_indices":[2,5,17,13,0,76,16,0,0,0,0,0,0],